digraph Tree {
node [shape=box] ;
0 [label="recipe <= 0.5\ngini = 0.5\nsamples = 7395\nvalue = [3599, 3796]"] ;
1 [label="image_ratio <= 0.379\ngini = 0.496\nsamples = 6461\nvalue = [3517, 2944]"] ;
0 -> 1 [labeldistance=2.5, labelangle=45, headlabel="True"] ;
2 [label="html_ratio <= 0.271\ngini = 0.499\nsamples = 5422\nvalue = [2799, 2623]"] ;
1 -> 2 ;
3 [label="html_ratio <= 0.159\ngini = 0.5\nsamples = 4235\nvalue = [2123, 2112]"] ;
2 -> 3 ;
4 [label="html_ratio <= 0.083\ngini = 0.446\nsamples = 134\nvalue = [89, 45]"] ;
3 -> 4 ;
5 [label="gini = 0.0\nsamples = 2\nvalue = [0, 2]"] ;
4 -> 5 ;
6 [label="image_ratio <= 0.257\ngini = 0.439\nsamples = 132\nvalue = [89, 43]"] ;
4 -> 6 ;
7 [label="image_ratio <= 0.065\ngini = 0.415\nsamples = 109\nvalue = [77, 32]"] ;
6 -> 7 ;
8 [label="html_ratio <= 0.136\ngini = 0.473\nsamples = 60\nvalue = [37, 23]"] ;
7 -> 8 ;
9 [label="html_ratio <= 0.1\ngini = 0.497\nsamples = 24\nvalue = [11, 13]"] ;
8 -> 9 ;
10 [label="gini = 0.0\nsamples = 4\nvalue = [4, 0]"] ;
9 -> 10 ;
11 [label="html_ratio <= 0.128\ngini = 0.455\nsamples = 20\nvalue = [7, 13]"] ;
9 -> 11 ;
12 [label="html_ratio <= 0.126\ngini = 0.498\nsamples = 15\nvalue = [7, 8]"] ;
11 -> 12 ;
13 [label="html_ratio <= 0.117\ngini = 0.444\nsamples = 12\nvalue = [4, 8]"] ;
12 -> 13 ;
14 [label="html_ratio <= 0.103\ngini = 0.494\nsamples = 9\nvalue = [4, 5]"] ;
13 -> 14 ;
15 [label="gini = 0.0\nsamples = 2\nvalue = [0, 2]"] ;
14 -> 15 ;
16 [label="image_ratio <= -0.498\ngini = 0.49\nsamples = 7\nvalue = [4, 3]"] ;
14 -> 16 ;
17 [label="html_ratio <= 0.116\ngini = 0.375\nsamples = 4\nvalue = [3, 1]"] ;
16 -> 17 ;
18 [label="gini = 0.0\nsamples = 3\nvalue = [3, 0]"] ;
17 -> 18 ;
19 [label="gini = 0.0\nsamples = 1\nvalue = [0, 1]"] ;
17 -> 19 ;
20 [label="image_ratio <= 0.029\ngini = 0.444\nsamples = 3\nvalue = [1, 2]"] ;
16 -> 20 ;
21 [label="gini = 0.0\nsamples = 2\nvalue = [0, 2]"] ;
20 -> 21 ;
22 [label="gini = 0.0\nsamples = 1\nvalue = [1, 0]"] ;
20 -> 22 ;
23 [label="gini = 0.0\nsamples = 3\nvalue = [0, 3]"] ;
13 -> 23 ;
24 [label="gini = 0.0\nsamples = 3\nvalue = [3, 0]"] ;
12 -> 24 ;
25 [label="gini = 0.0\nsamples = 5\nvalue = [0, 5]"] ;
11 -> 25 ;
26 [label="image_ratio <= 0.002\ngini = 0.401\nsamples = 36\nvalue = [26, 10]"] ;
8 -> 26 ;
27 [label="html_ratio <= 0.153\ngini = 0.269\nsamples = 25\nvalue = [21, 4]"] ;
26 -> 27 ;
28 [label="html_ratio <= 0.152\ngini = 0.332\nsamples = 19\nvalue = [15, 4]"] ;
27 -> 28 ;
29 [label="html_ratio <= 0.15\ngini = 0.278\nsamples = 18\nvalue = [15, 3]"] ;
28 -> 29 ;
30 [label="html_ratio <= 0.148\ngini = 0.355\nsamples = 13\nvalue = [10, 3]"] ;
29 -> 30 ;
31 [label="html_ratio <= 0.145\ngini = 0.278\nsamples = 12\nvalue = [10, 2]"] ;
30 -> 31 ;
32 [label="html_ratio <= 0.145\ngini = 0.375\nsamples = 8\nvalue = [6, 2]"] ;
31 -> 32 ;
33 [label="html_ratio <= 0.142\ngini = 0.245\nsamples = 7\nvalue = [6, 1]"] ;
32 -> 33 ;
34 [label="gini = 0.0\nsamples = 3\nvalue = [3, 0]"] ;
33 -> 34 ;
35 [label="html_ratio <= 0.142\ngini = 0.375\nsamples = 4\nvalue = [3, 1]"] ;
33 -> 35 ;
36 [label="gini = 0.0\nsamples = 1\nvalue = [0, 1]"] ;
35 -> 36 ;
37 [label="gini = 0.0\nsamples = 3\nvalue = [3, 0]"] ;
35 -> 37 ;
38 [label="gini = 0.0\nsamples = 1\nvalue = [0, 1]"] ;
32 -> 38 ;
39 [label="gini = 0.0\nsamples = 4\nvalue = [4, 0]"] ;
31 -> 39 ;
40 [label="gini = 0.0\nsamples = 1\nvalue = [0, 1]"] ;
30 -> 40 ;
41 [label="gini = 0.0\nsamples = 5\nvalue = [5, 0]"] ;
29 -> 41 ;
42 [label="gini = 0.0\nsamples = 1\nvalue = [0, 1]"] ;
28 -> 42 ;
43 [label="gini = 0.0\nsamples = 6\nvalue = [6, 0]"] ;
27 -> 43 ;
44 [label="html_ratio <= 0.139\ngini = 0.496\nsamples = 11\nvalue = [5, 6]"] ;
26 -> 44 ;
45 [label="gini = 0.0\nsamples = 2\nvalue = [2, 0]"] ;
44 -> 45 ;
46 [label="html_ratio <= 0.152\ngini = 0.444\nsamples = 9\nvalue = [3, 6]"] ;
44 -> 46 ;
47 [label="gini = 0.0\nsamples = 2\nvalue = [0, 2]"] ;
46 -> 47 ;
48 [label="html_ratio <= 0.155\ngini = 0.49\nsamples = 7\nvalue = [3, 4]"] ;
46 -> 48 ;
49 [label="gini = 0.0\nsamples = 2\nvalue = [2, 0]"] ;
48 -> 49 ;
50 [label="html_ratio <= 0.157\ngini = 0.32\nsamples = 5\nvalue = [1, 4]"] ;
48 -> 50 ;
51 [label="gini = 0.0\nsamples = 3\nvalue = [0, 3]"] ;
50 -> 51 ;
52 [label="image_ratio <= 0.033\ngini = 0.5\nsamples = 2\nvalue = [1, 1]"] ;
50 -> 52 ;
53 [label="gini = 0.0\nsamples = 1\nvalue = [1, 0]"] ;
52 -> 53 ;
54 [label="gini = 0.0\nsamples = 1\nvalue = [0, 1]"] ;
52 -> 54 ;
55 [label="html_ratio <= 0.153\ngini = 0.3\nsamples = 49\nvalue = [40, 9]"] ;
7 -> 55 ;
56 [label="html_ratio <= 0.116\ngini = 0.355\nsamples = 39\nvalue = [30, 9]"] ;
55 -> 56 ;
57 [label="gini = 0.0\nsamples = 9\nvalue = [9, 0]"] ;
56 -> 57 ;
58 [label="image_ratio <= 0.164\ngini = 0.42\nsamples = 30\nvalue = [21, 9]"] ;
56 -> 58 ;
59 [label="image_ratio <= 0.156\ngini = 0.497\nsamples = 13\nvalue = [7, 6]"] ;
58 -> 59 ;
60 [label="html_ratio <= 0.125\ngini = 0.463\nsamples = 11\nvalue = [7, 4]"] ;
59 -> 60 ;
61 [label="gini = 0.0\nsamples = 2\nvalue = [0, 2]"] ;
60 -> 61 ;
62 [label="html_ratio <= 0.15\ngini = 0.346\nsamples = 9\nvalue = [7, 2]"] ;
60 -> 62 ;
63 [label="html_ratio <= 0.128\ngini = 0.219\nsamples = 8\nvalue = [7, 1]"] ;
62 -> 63 ;
64 [label="image_ratio <= 0.15\ngini = 0.5\nsamples = 2\nvalue = [1, 1]"] ;
63 -> 64 ;
65 [label="gini = 0.0\nsamples = 1\nvalue = [0, 1]"] ;
64 -> 65 ;
66 [label="gini = 0.0\nsamples = 1\nvalue = [1, 0]"] ;
64 -> 66 ;
67 [label="gini = 0.0\nsamples = 6\nvalue = [6, 0]"] ;
63 -> 67 ;
68 [label="gini = 0.0\nsamples = 1\nvalue = [0, 1]"] ;
62 -> 68 ;
69 [label="gini = 0.0\nsamples = 2\nvalue = [0, 2]"] ;
59 -> 69 ;
70 [label="html_ratio <= 0.132\ngini = 0.291\nsamples = 17\nvalue = [14, 3]"] ;
58 -> 70 ;
71 [label="gini = 0.0\nsamples = 7\nvalue = [7, 0]"] ;
70 -> 71 ;
72 [label="html_ratio <= 0.136\ngini = 0.42\nsamples = 10\nvalue = [7, 3]"] ;
70 -> 72 ;
73 [label="gini = 0.0\nsamples = 1\nvalue = [0, 1]"] ;
72 -> 73 ;
74 [label="image_ratio <= 0.213\ngini = 0.346\nsamples = 9\nvalue = [7, 2]"] ;
72 -> 74 ;
75 [label="image_ratio <= 0.208\ngini = 0.444\nsamples = 6\nvalue = [4, 2]"] ;
74 -> 75 ;
76 [label="html_ratio <= 0.142\ngini = 0.32\nsamples = 5\nvalue = [4, 1]"] ;
75 -> 76 ;
77 [label="html_ratio <= 0.139\ngini = 0.5\nsamples = 2\nvalue = [1, 1]"] ;
76 -> 77 ;
78 [label="gini = 0.0\nsamples = 1\nvalue = [1, 0]"] ;
77 -> 78 ;
79 [label="gini = 0.0\nsamples = 1\nvalue = [0, 1]"] ;
77 -> 79 ;
80 [label="gini = 0.0\nsamples = 3\nvalue = [3, 0]"] ;
76 -> 80 ;
81 [label="gini = 0.0\nsamples = 1\nvalue = [0, 1]"] ;
75 -> 81 ;
82 [label="gini = 0.0\nsamples = 3\nvalue = [3, 0]"] ;
74 -> 82 ;
83 [label="gini = 0.0\nsamples = 10\nvalue = [10, 0]"] ;
55 -> 83 ;
84 [label="image_ratio <= 0.295\ngini = 0.499\nsamples = 23\nvalue = [12, 11]"] ;
6 -> 84 ;
85 [label="html_ratio <= 0.158\ngini = 0.375\nsamples = 8\nvalue = [2, 6]"] ;
84 -> 85 ;
86 [label="gini = 0.0\nsamples = 6\nvalue = [0, 6]"] ;
85 -> 86 ;
87 [label="gini = 0.0\nsamples = 2\nvalue = [2, 0]"] ;
85 -> 87 ;
88 [label="html_ratio <= 0.156\ngini = 0.444\nsamples = 15\nvalue = [10, 5]"] ;
84 -> 88 ;
89 [label="image_ratio <= 0.369\ngini = 0.355\nsamples = 13\nvalue = [10, 3]"] ;
88 -> 89 ;
90 [label="image_ratio <= 0.296\ngini = 0.278\nsamples = 12\nvalue = [10, 2]"] ;
89 -> 90 ;
91 [label="html_ratio <= 0.149\ngini = 0.5\nsamples = 2\nvalue = [1, 1]"] ;
90 -> 91 ;
92 [label="gini = 0.0\nsamples = 1\nvalue = [0, 1]"] ;
91 -> 92 ;
93 [label="gini = 0.0\nsamples = 1\nvalue = [1, 0]"] ;
91 -> 93 ;
94 [label="html_ratio <= 0.145\ngini = 0.18\nsamples = 10\nvalue = [9, 1]"] ;
90 -> 94 ;
95 [label="html_ratio <= 0.14\ngini = 0.32\nsamples = 5\nvalue = [4, 1]"] ;
94 -> 95 ;
96 [label="gini = 0.0\nsamples = 4\nvalue = [4, 0]"] ;
95 -> 96 ;
97 [label="gini = 0.0\nsamples = 1\nvalue = [0, 1]"] ;
95 -> 97 ;
98 [label="gini = 0.0\nsamples = 5\nvalue = [5, 0]"] ;
94 -> 98 ;
99 [label="gini = 0.0\nsamples = 1\nvalue = [0, 1]"] ;
89 -> 99 ;
100 [label="gini = 0.0\nsamples = 2\nvalue = [0, 2]"] ;
88 -> 100 ;
101 [label="html_ratio <= 0.201\ngini = 0.5\nsamples = 4101\nvalue = [2034, 2067]"] ;
3 -> 101 ;
102 [label="image_ratio <= 0.017\ngini = 0.49\nsamples = 881\nvalue = [377, 504]"] ;
101 -> 102 ;
103 [label="image_ratio <= 0.015\ngini = 0.497\nsamples = 141\nvalue = [76, 65]"] ;
102 -> 103 ;
104 [label="image_ratio <= 0.012\ngini = 0.5\nsamples = 132\nvalue = [68, 64]"] ;
103 -> 104 ;
105 [label="image_ratio <= 0.011\ngini = 0.497\nsamples = 127\nvalue = [68, 59]"] ;
104 -> 105 ;
106 [label="image_ratio <= 0.002\ngini = 0.499\nsamples = 124\nvalue = [65, 59]"] ;
105 -> 106 ;
107 [label="image_ratio <= -0.5\ngini = 0.494\nsamples = 110\nvalue = [61, 49]"] ;
106 -> 107 ;
108 [label="html_ratio <= 0.2\ngini = 0.497\nsamples = 106\nvalue = [57, 49]"] ;
107 -> 108 ;
109 [label="html_ratio <= 0.199\ngini = 0.499\nsamples = 101\nvalue = [53, 48]"] ;
108 -> 109 ;
110 [label="html_ratio <= 0.161\ngini = 0.497\nsamples = 98\nvalue = [53, 45]"] ;
109 -> 110 ;
111 [label="gini = 0.0\nsamples = 1\nvalue = [0, 1]"] ;
110 -> 111 ;
112 [label="html_ratio <= 0.162\ngini = 0.496\nsamples = 97\nvalue = [53, 44]"] ;
110 -> 112 ;
113 [label="gini = 0.0\nsamples = 3\nvalue = [3, 0]"] ;
112 -> 113 ;
114 [label="html_ratio <= 0.165\ngini = 0.498\nsamples = 94\nvalue = [50, 44]"] ;
112 -> 114 ;
115 [label="html_ratio <= 0.163\ngini = 0.42\nsamples = 10\nvalue = [3, 7]"] ;
114 -> 115 ;
116 [label="html_ratio <= 0.163\ngini = 0.5\nsamples = 4\nvalue = [2, 2]"] ;
115 -> 116 ;
117 [label="gini = 0.0\nsamples = 1\nvalue = [0, 1]"] ;
116 -> 117 ;
118 [label="html_ratio <= 0.163\ngini = 0.444\nsamples = 3\nvalue = [2, 1]"] ;
116 -> 118 ;
119 [label="gini = 0.0\nsamples = 1\nvalue = [1, 0]"] ;
118 -> 119 ;
120 [label="html_ratio <= 0.163\ngini = 0.5\nsamples = 2\nvalue = [1, 1]"] ;
118 -> 120 ;
121 [label="gini = 0.0\nsamples = 1\nvalue = [0, 1]"] ;
120 -> 121 ;
122 [label="gini = 0.0\nsamples = 1\nvalue = [1, 0]"] ;
120 -> 122 ;
123 [label="html_ratio <= 0.164\ngini = 0.278\nsamples = 6\nvalue = [1, 5]"] ;
115 -> 123 ;
124 [label="gini = 0.0\nsamples = 3\nvalue = [0, 3]"] ;
123 -> 124 ;
125 [label="html_ratio <= 0.164\ngini = 0.444\nsamples = 3\nvalue = [1, 2]"] ;
123 -> 125 ;
126 [label="gini = 0.0\nsamples = 1\nvalue = [1, 0]"] ;
125 -> 126 ;
127 [label="gini = 0.0\nsamples = 2\nvalue = [0, 2]"] ;
125 -> 127 ;
128 [label="html_ratio <= 0.166\ngini = 0.493\nsamples = 84\nvalue = [47, 37]"] ;
114 -> 128 ;
129 [label="gini = 0.0\nsamples = 3\nvalue = [3, 0]"] ;
128 -> 129 ;
130 [label="html_ratio <= 0.167\ngini = 0.496\nsamples = 81\nvalue = [44, 37]"] ;
128 -> 130 ;
131 [label="gini = 0.0\nsamples = 2\nvalue = [0, 2]"] ;
130 -> 131 ;
132 [label="html_ratio <= 0.168\ngini = 0.494\nsamples = 79\nvalue = [44, 35]"] ;
130 -> 132 ;
133 [label="gini = 0.0\nsamples = 3\nvalue = [3, 0]"] ;
132 -> 133 ;
134 [label="html_ratio <= 0.174\ngini = 0.497\nsamples = 76\nvalue = [41, 35]"] ;
132 -> 134 ;
135 [label="html_ratio <= 0.171\ngini = 0.48\nsamples = 15\nvalue = [6, 9]"] ;
134 -> 135 ;
136 [label="html_ratio <= 0.17\ngini = 0.49\nsamples = 7\nvalue = [4, 3]"] ;
135 -> 136 ;
137 [label="html_ratio <= 0.169\ngini = 0.48\nsamples = 5\nvalue = [2, 3]"] ;
136 -> 137 ;
138 [label="html_ratio <= 0.168\ngini = 0.444\nsamples = 3\nvalue = [2, 1]"] ;
137 -> 138 ;
139 [label="gini = 0.0\nsamples = 1\nvalue = [0, 1]"] ;
138 -> 139 ;
140 [label="gini = 0.0\nsamples = 2\nvalue = [2, 0]"] ;
138 -> 140 ;
141 [label="gini = 0.0\nsamples = 2\nvalue = [0, 2]"] ;
137 -> 141 ;
142 [label="gini = 0.0\nsamples = 2\nvalue = [2, 0]"] ;
136 -> 142 ;
143 [label="html_ratio <= 0.172\ngini = 0.375\nsamples = 8\nvalue = [2, 6]"] ;
135 -> 143 ;
144 [label="gini = 0.0\nsamples = 2\nvalue = [0, 2]"] ;
143 -> 144 ;
145 [label="html_ratio <= 0.172\ngini = 0.444\nsamples = 6\nvalue = [2, 4]"] ;
143 -> 145 ;
146 [label="gini = 0.0\nsamples = 1\nvalue = [1, 0]"] ;
145 -> 146 ;
147 [label="html_ratio <= 0.173\ngini = 0.32\nsamples = 5\nvalue = [1, 4]"] ;
145 -> 147 ;
148 [label="gini = 0.0\nsamples = 2\nvalue = [0, 2]"] ;
147 -> 148 ;
149 [label="html_ratio <= 0.174\ngini = 0.444\nsamples = 3\nvalue = [1, 2]"] ;
147 -> 149 ;
150 [label="gini = 0.0\nsamples = 1\nvalue = [1, 0]"] ;
149 -> 150 ;
151 [label="gini = 0.0\nsamples = 2\nvalue = [0, 2]"] ;
149 -> 151 ;
152 [label="html_ratio <= 0.182\ngini = 0.489\nsamples = 61\nvalue = [35, 26]"] ;
134 -> 152 ;
153 [label="html_ratio <= 0.18\ngini = 0.337\nsamples = 14\nvalue = [11, 3]"] ;
152 -> 153 ;
154 [label="html_ratio <= 0.179\ngini = 0.42\nsamples = 10\nvalue = [7, 3]"] ;
153 -> 154 ;
155 [label="html_ratio <= 0.175\ngini = 0.346\nsamples = 9\nvalue = [7, 2]"] ;
154 -> 155 ;
156 [label="html_ratio <= 0.175\ngini = 0.5\nsamples = 2\nvalue = [1, 1]"] ;
155 -> 156 ;
157 [label="gini = 0.0\nsamples = 1\nvalue = [1, 0]"] ;
156 -> 157 ;
158 [label="gini = 0.0\nsamples = 1\nvalue = [0, 1]"] ;
156 -> 158 ;
159 [label="html_ratio <= 0.178\ngini = 0.245\nsamples = 7\nvalue = [6, 1]"] ;
155 -> 159 ;
160 [label="gini = 0.0\nsamples = 4\nvalue = [4, 0]"] ;
159 -> 160 ;
161 [label="html_ratio <= 0.179\ngini = 0.444\nsamples = 3\nvalue = [2, 1]"] ;
159 -> 161 ;
162 [label="gini = 0.0\nsamples = 1\nvalue = [0, 1]"] ;
161 -> 162 ;
163 [label="gini = 0.0\nsamples = 2\nvalue = [2, 0]"] ;
161 -> 163 ;
164 [label="gini = 0.0\nsamples = 1\nvalue = [0, 1]"] ;
154 -> 164 ;
165 [label="gini = 0.0\nsamples = 4\nvalue = [4, 0]"] ;
153 -> 165 ;
166 [label="html_ratio <= 0.184\ngini = 0.5\nsamples = 47\nvalue = [24, 23]"] ;
152 -> 166 ;
167 [label="gini = 0.0\nsamples = 3\nvalue = [0, 3]"] ;
166 -> 167 ;
168 [label="html_ratio <= 0.189\ngini = 0.496\nsamples = 44\nvalue = [24, 20]"] ;
166 -> 168 ;
169 [label="html_ratio <= 0.188\ngini = 0.426\nsamples = 13\nvalue = [9, 4]"] ;
168 -> 169 ;
170 [label="html_ratio <= 0.188\ngini = 0.463\nsamples = 11\nvalue = [7, 4]"] ;
169 -> 170 ;
171 [label="html_ratio <= 0.187\ngini = 0.42\nsamples = 10\nvalue = [7, 3]"] ;
170 -> 171 ;
172 [label="html_ratio <= 0.186\ngini = 0.49\nsamples = 7\nvalue = [4, 3]"] ;
171 -> 172 ;
173 [label="html_ratio <= 0.184\ngini = 0.32\nsamples = 5\nvalue = [4, 1]"] ;
172 -> 173 ;
174 [label="html_ratio <= 0.184\ngini = 0.5\nsamples = 2\nvalue = [1, 1]"] ;
173 -> 174 ;
175 [label="gini = 0.0\nsamples = 1\nvalue = [1, 0]"] ;
174 -> 175 ;
176 [label="gini = 0.0\nsamples = 1\nvalue = [0, 1]"] ;
174 -> 176 ;
177 [label="gini = 0.0\nsamples = 3\nvalue = [3, 0]"] ;
173 -> 177 ;
178 [label="gini = 0.0\nsamples = 2\nvalue = [0, 2]"] ;
172 -> 178 ;
179 [label="gini = 0.0\nsamples = 3\nvalue = [3, 0]"] ;
171 -> 179 ;
180 [label="gini = 0.0\nsamples = 1\nvalue = [0, 1]"] ;
170 -> 180 ;
181 [label="gini = 0.0\nsamples = 2\nvalue = [2, 0]"] ;
169 -> 181 ;
182 [label="html_ratio <= 0.19\ngini = 0.499\nsamples = 31\nvalue = [15, 16]"] ;
168 -> 182 ;
183 [label="gini = 0.0\nsamples = 4\nvalue = [0, 4]"] ;
182 -> 183 ;
184 [label="html_ratio <= 0.191\ngini = 0.494\nsamples = 27\nvalue = [15, 12]"] ;
182 -> 184 ;
185 [label="html_ratio <= 0.19\ngini = 0.32\nsamples = 5\nvalue = [4, 1]"] ;
184 -> 185 ;
186 [label="html_ratio <= 0.19\ngini = 0.5\nsamples = 2\nvalue = [1, 1]"] ;
185 -> 186 ;
187 [label="gini = 0.0\nsamples = 1\nvalue = [1, 0]"] ;
186 -> 187 ;
188 [label="gini = 0.0\nsamples = 1\nvalue = [0, 1]"] ;
186 -> 188 ;
189 [label="gini = 0.0\nsamples = 3\nvalue = [3, 0]"] ;
185 -> 189 ;
190 [label="html_ratio <= 0.194\ngini = 0.5\nsamples = 22\nvalue = [11, 11]"] ;
184 -> 190 ;
191 [label="html_ratio <= 0.194\ngini = 0.375\nsamples = 8\nvalue = [2, 6]"] ;
190 -> 191 ;
192 [label="html_ratio <= 0.192\ngini = 0.48\nsamples = 5\nvalue = [2, 3]"] ;
191 -> 192 ;
193 [label="gini = 0.0\nsamples = 2\nvalue = [0, 2]"] ;
192 -> 193 ;
194 [label="html_ratio <= 0.193\ngini = 0.444\nsamples = 3\nvalue = [2, 1]"] ;
192 -> 194 ;
195 [label="gini = 0.0\nsamples = 1\nvalue = [1, 0]"] ;
194 -> 195 ;
196 [label="html_ratio <= 0.193\ngini = 0.5\nsamples = 2\nvalue = [1, 1]"] ;
194 -> 196 ;
197 [label="gini = 0.0\nsamples = 1\nvalue = [0, 1]"] ;
196 -> 197 ;
198 [label="gini = 0.0\nsamples = 1\nvalue = [1, 0]"] ;
196 -> 198 ;
199 [label="gini = 0.0\nsamples = 3\nvalue = [0, 3]"] ;
191 -> 199 ;
200 [label="html_ratio <= 0.198\ngini = 0.459\nsamples = 14\nvalue = [9, 5]"] ;
190 -> 200 ;
201 [label="html_ratio <= 0.196\ngini = 0.245\nsamples = 7\nvalue = [6, 1]"] ;
200 -> 201 ;
202 [label="gini = 0.0\nsamples = 3\nvalue = [3, 0]"] ;
201 -> 202 ;
203 [label="html_ratio <= 0.197\ngini = 0.375\nsamples = 4\nvalue = [3, 1]"] ;
201 -> 203 ;
204 [label="gini = 0.0\nsamples = 1\nvalue = [0, 1]"] ;
203 -> 204 ;
205 [label="gini = 0.0\nsamples = 3\nvalue = [3, 0]"] ;
203 -> 205 ;
206 [label="html_ratio <= 0.199\ngini = 0.49\nsamples = 7\nvalue = [3, 4]"] ;
200 -> 206 ;
207 [label="gini = 0.0\nsamples = 2\nvalue = [0, 2]"] ;
206 -> 207 ;
208 [label="html_ratio <= 0.199\ngini = 0.48\nsamples = 5\nvalue = [3, 2]"] ;
206 -> 208 ;
209 [label="gini = 0.0\nsamples = 2\nvalue = [2, 0]"] ;
208 -> 209 ;
210 [label="html_ratio <= 0.199\ngini = 0.444\nsamples = 3\nvalue = [1, 2]"] ;
208 -> 210 ;
211 [label="gini = 0.0\nsamples = 2\nvalue = [0, 2]"] ;
210 -> 211 ;
212 [label="gini = 0.0\nsamples = 1\nvalue = [1, 0]"] ;
210 -> 212 ;
213 [label="gini = 0.0\nsamples = 3\nvalue = [0, 3]"] ;
109 -> 213 ;
214 [label="html_ratio <= 0.201\ngini = 0.32\nsamples = 5\nvalue = [4, 1]"] ;
108 -> 214 ;
215 [label="gini = 0.0\nsamples = 4\nvalue = [4, 0]"] ;
214 -> 215 ;
216 [label="gini = 0.0\nsamples = 1\nvalue = [0, 1]"] ;
214 -> 216 ;
217 [label="gini = 0.0\nsamples = 4\nvalue = [4, 0]"] ;
107 -> 217 ;
218 [label="image_ratio <= 0.008\ngini = 0.408\nsamples = 14\nvalue = [4, 10]"] ;
106 -> 218 ;
219 [label="image_ratio <= 0.004\ngini = 0.219\nsamples = 8\nvalue = [1, 7]"] ;
218 -> 219 ;
220 [label="gini = 0.0\nsamples = 4\nvalue = [0, 4]"] ;
219 -> 220 ;
221 [label="image_ratio <= 0.005\ngini = 0.375\nsamples = 4\nvalue = [1, 3]"] ;
219 -> 221 ;
222 [label="gini = 0.0\nsamples = 1\nvalue = [1, 0]"] ;
221 -> 222 ;
223 [label="gini = 0.0\nsamples = 3\nvalue = [0, 3]"] ;
221 -> 223 ;
224 [label="image_ratio <= 0.009\ngini = 0.5\nsamples = 6\nvalue = [3, 3]"] ;
218 -> 224 ;
225 [label="gini = 0.0\nsamples = 2\nvalue = [2, 0]"] ;
224 -> 225 ;
226 [label="html_ratio <= 0.184\ngini = 0.375\nsamples = 4\nvalue = [1, 3]"] ;
224 -> 226 ;
227 [label="gini = 0.0\nsamples = 3\nvalue = [0, 3]"] ;
226 -> 227 ;
228 [label="gini = 0.0\nsamples = 1\nvalue = [1, 0]"] ;
226 -> 228 ;
229 [label="gini = 0.0\nsamples = 3\nvalue = [3, 0]"] ;
105 -> 229 ;
230 [label="gini = 0.0\nsamples = 5\nvalue = [0, 5]"] ;
104 -> 230 ;
231 [label="html_ratio <= 0.171\ngini = 0.198\nsamples = 9\nvalue = [8, 1]"] ;
103 -> 231 ;
232 [label="gini = 0.0\nsamples = 5\nvalue = [5, 0]"] ;
231 -> 232 ;
233 [label="html_ratio <= 0.172\ngini = 0.375\nsamples = 4\nvalue = [3, 1]"] ;
231 -> 233 ;
234 [label="gini = 0.0\nsamples = 1\nvalue = [0, 1]"] ;
233 -> 234 ;
235 [label="gini = 0.0\nsamples = 3\nvalue = [3, 0]"] ;
233 -> 235 ;
236 [label="html_ratio <= 0.181\ngini = 0.483\nsamples = 740\nvalue = [301, 439]"] ;
102 -> 236 ;
237 [label="image_ratio <= 0.018\ngini = 0.498\nsamples = 269\nvalue = [125, 144]"] ;
236 -> 237 ;
238 [label="gini = 0.0\nsamples = 5\nvalue = [0, 5]"] ;
237 -> 238 ;
239 [label="image_ratio <= 0.109\ngini = 0.499\nsamples = 264\nvalue = [125, 139]"] ;
237 -> 239 ;
240 [label="image_ratio <= 0.097\ngini = 0.497\nsamples = 111\nvalue = [60, 51]"] ;
239 -> 240 ;
241 [label="html_ratio <= 0.175\ngini = 0.5\nsamples = 103\nvalue = [52, 51]"] ;
240 -> 241 ;
242 [label="html_ratio <= 0.168\ngini = 0.492\nsamples = 71\nvalue = [31, 40]"] ;
241 -> 242 ;
243 [label="html_ratio <= 0.161\ngini = 0.483\nsamples = 27\nvalue = [16, 11]"] ;
242 -> 243 ;
244 [label="image_ratio <= 0.021\ngini = 0.278\nsamples = 6\nvalue = [1, 5]"] ;
243 -> 244 ;
245 [label="html_ratio <= 0.16\ngini = 0.5\nsamples = 2\nvalue = [1, 1]"] ;
244 -> 245 ;
246 [label="gini = 0.0\nsamples = 1\nvalue = [0, 1]"] ;
245 -> 246 ;
247 [label="gini = 0.0\nsamples = 1\nvalue = [1, 0]"] ;
245 -> 247 ;
248 [label="gini = 0.0\nsamples = 4\nvalue = [0, 4]"] ;
244 -> 248 ;
249 [label="image_ratio <= 0.049\ngini = 0.408\nsamples = 21\nvalue = [15, 6]"] ;
243 -> 249 ;
250 [label="image_ratio <= 0.044\ngini = 0.49\nsamples = 14\nvalue = [8, 6]"] ;
249 -> 250 ;
251 [label="html_ratio <= 0.166\ngini = 0.444\nsamples = 12\nvalue = [8, 4]"] ;
250 -> 251 ;
252 [label="html_ratio <= 0.165\ngini = 0.49\nsamples = 7\nvalue = [3, 4]"] ;
251 -> 252 ;
253 [label="html_ratio <= 0.162\ngini = 0.48\nsamples = 5\nvalue = [3, 2]"] ;
252 -> 253 ;
254 [label="gini = 0.0\nsamples = 1\nvalue = [0, 1]"] ;
253 -> 254 ;
255 [label="html_ratio <= 0.163\ngini = 0.375\nsamples = 4\nvalue = [3, 1]"] ;
253 -> 255 ;
256 [label="gini = 0.0\nsamples = 2\nvalue = [2, 0]"] ;
255 -> 256 ;
257 [label="image_ratio <= 0.02\ngini = 0.5\nsamples = 2\nvalue = [1, 1]"] ;
255 -> 257 ;
258 [label="gini = 0.0\nsamples = 1\nvalue = [0, 1]"] ;
257 -> 258 ;
259 [label="gini = 0.0\nsamples = 1\nvalue = [1, 0]"] ;
257 -> 259 ;
260 [label="gini = 0.0\nsamples = 2\nvalue = [0, 2]"] ;
252 -> 260 ;
261 [label="gini = 0.0\nsamples = 5\nvalue = [5, 0]"] ;
251 -> 261 ;
262 [label="gini = 0.0\nsamples = 2\nvalue = [0, 2]"] ;
250 -> 262 ;
263 [label="gini = 0.0\nsamples = 7\nvalue = [7, 0]"] ;
249 -> 263 ;
264 [label="image_ratio <= 0.049\ngini = 0.449\nsamples = 44\nvalue = [15, 29]"] ;
242 -> 264 ;
265 [label="image_ratio <= 0.046\ngini = 0.482\nsamples = 32\nvalue = [13, 19]"] ;
264 -> 265 ;
266 [label="image_ratio <= 0.031\ngini = 0.452\nsamples = 29\nvalue = [10, 19]"] ;
265 -> 266 ;
267 [label="image_ratio <= 0.027\ngini = 0.49\nsamples = 21\nvalue = [9, 12]"] ;
266 -> 267 ;
268 [label="image_ratio <= 0.018\ngini = 0.465\nsamples = 19\nvalue = [7, 12]"] ;
267 -> 268 ;
269 [label="gini = 0.0\nsamples = 1\nvalue = [1, 0]"] ;
268 -> 269 ;
270 [label="html_ratio <= 0.17\ngini = 0.444\nsamples = 18\nvalue = [6, 12]"] ;
268 -> 270 ;
271 [label="gini = 0.0\nsamples = 5\nvalue = [0, 5]"] ;
270 -> 271 ;
272 [label="image_ratio <= 0.019\ngini = 0.497\nsamples = 13\nvalue = [6, 7]"] ;
270 -> 272 ;
273 [label="gini = 0.0\nsamples = 2\nvalue = [0, 2]"] ;
272 -> 273 ;
274 [label="image_ratio <= 0.026\ngini = 0.496\nsamples = 11\nvalue = [6, 5]"] ;
272 -> 274 ;
275 [label="html_ratio <= 0.171\ngini = 0.444\nsamples = 9\nvalue = [6, 3]"] ;
274 -> 275 ;
276 [label="html_ratio <= 0.17\ngini = 0.444\nsamples = 3\nvalue = [1, 2]"] ;
275 -> 276 ;
277 [label="gini = 0.0\nsamples = 1\nvalue = [1, 0]"] ;
276 -> 277 ;
278 [label="gini = 0.0\nsamples = 2\nvalue = [0, 2]"] ;
276 -> 278 ;
279 [label="html_ratio <= 0.174\ngini = 0.278\nsamples = 6\nvalue = [5, 1]"] ;
275 -> 279 ;
280 [label="gini = 0.0\nsamples = 5\nvalue = [5, 0]"] ;
279 -> 280 ;
281 [label="gini = 0.0\nsamples = 1\nvalue = [0, 1]"] ;
279 -> 281 ;
282 [label="gini = 0.0\nsamples = 2\nvalue = [0, 2]"] ;
274 -> 282 ;
283 [label="gini = 0.0\nsamples = 2\nvalue = [2, 0]"] ;
267 -> 283 ;
284 [label="html_ratio <= 0.169\ngini = 0.219\nsamples = 8\nvalue = [1, 7]"] ;
266 -> 284 ;
285 [label="gini = 0.0\nsamples = 1\nvalue = [1, 0]"] ;
284 -> 285 ;
286 [label="gini = 0.0\nsamples = 7\nvalue = [0, 7]"] ;
284 -> 286 ;
287 [label="gini = 0.0\nsamples = 3\nvalue = [3, 0]"] ;
265 -> 287 ;
288 [label="html_ratio <= 0.171\ngini = 0.278\nsamples = 12\nvalue = [2, 10]"] ;
264 -> 288 ;
289 [label="html_ratio <= 0.17\ngini = 0.444\nsamples = 6\nvalue = [2, 4]"] ;
288 -> 289 ;
290 [label="image_ratio <= 0.063\ngini = 0.32\nsamples = 5\nvalue = [1, 4]"] ;
289 -> 290 ;
291 [label="image_ratio <= 0.061\ngini = 0.5\nsamples = 2\nvalue = [1, 1]"] ;
290 -> 291 ;
292 [label="gini = 0.0\nsamples = 1\nvalue = [0, 1]"] ;
291 -> 292 ;
293 [label="gini = 0.0\nsamples = 1\nvalue = [1, 0]"] ;
291 -> 293 ;
294 [label="gini = 0.0\nsamples = 3\nvalue = [0, 3]"] ;
290 -> 294 ;
295 [label="gini = 0.0\nsamples = 1\nvalue = [1, 0]"] ;
289 -> 295 ;
296 [label="gini = 0.0\nsamples = 6\nvalue = [0, 6]"] ;
288 -> 296 ;
297 [label="image_ratio <= 0.091\ngini = 0.451\nsamples = 32\nvalue = [21, 11]"] ;
241 -> 297 ;
298 [label="image_ratio <= 0.058\ngini = 0.384\nsamples = 27\nvalue = [20, 7]"] ;
297 -> 298 ;
299 [label="image_ratio <= 0.021\ngini = 0.473\nsamples = 13\nvalue = [8, 5]"] ;
298 -> 299 ;
300 [label="gini = 0.0\nsamples = 3\nvalue = [3, 0]"] ;
299 -> 300 ;
301 [label="html_ratio <= 0.18\ngini = 0.5\nsamples = 10\nvalue = [5, 5]"] ;
299 -> 301 ;
302 [label="html_ratio <= 0.175\ngini = 0.469\nsamples = 8\nvalue = [3, 5]"] ;
301 -> 302 ;
303 [label="gini = 0.0\nsamples = 1\nvalue = [1, 0]"] ;
302 -> 303 ;
304 [label="html_ratio <= 0.178\ngini = 0.408\nsamples = 7\nvalue = [2, 5]"] ;
302 -> 304 ;
305 [label="html_ratio <= 0.177\ngini = 0.48\nsamples = 5\nvalue = [2, 3]"] ;
304 -> 305 ;
306 [label="image_ratio <= 0.025\ngini = 0.375\nsamples = 4\nvalue = [1, 3]"] ;
305 -> 306 ;
307 [label="image_ratio <= 0.021\ngini = 0.5\nsamples = 2\nvalue = [1, 1]"] ;
306 -> 307 ;
308 [label="gini = 0.0\nsamples = 1\nvalue = [0, 1]"] ;
307 -> 308 ;
309 [label="gini = 0.0\nsamples = 1\nvalue = [1, 0]"] ;
307 -> 309 ;
310 [label="gini = 0.0\nsamples = 2\nvalue = [0, 2]"] ;
306 -> 310 ;
311 [label="gini = 0.0\nsamples = 1\nvalue = [1, 0]"] ;
305 -> 311 ;
312 [label="gini = 0.0\nsamples = 2\nvalue = [0, 2]"] ;
304 -> 312 ;
313 [label="gini = 0.0\nsamples = 2\nvalue = [2, 0]"] ;
301 -> 313 ;
314 [label="html_ratio <= 0.179\ngini = 0.245\nsamples = 14\nvalue = [12, 2]"] ;
298 -> 314 ;
315 [label="html_ratio <= 0.179\ngini = 0.346\nsamples = 9\nvalue = [7, 2]"] ;
314 -> 315 ;
316 [label="image_ratio <= 0.089\ngini = 0.219\nsamples = 8\nvalue = [7, 1]"] ;
315 -> 316 ;
317 [label="gini = 0.0\nsamples = 5\nvalue = [5, 0]"] ;
316 -> 317 ;
318 [label="image_ratio <= 0.09\ngini = 0.444\nsamples = 3\nvalue = [2, 1]"] ;
316 -> 318 ;
319 [label="gini = 0.0\nsamples = 1\nvalue = [0, 1]"] ;
318 -> 319 ;
320 [label="gini = 0.0\nsamples = 2\nvalue = [2, 0]"] ;
318 -> 320 ;
321 [label="gini = 0.0\nsamples = 1\nvalue = [0, 1]"] ;
315 -> 321 ;
322 [label="gini = 0.0\nsamples = 5\nvalue = [5, 0]"] ;
314 -> 322 ;
323 [label="html_ratio <= 0.177\ngini = 0.32\nsamples = 5\nvalue = [1, 4]"] ;
297 -> 323 ;
324 [label="html_ratio <= 0.176\ngini = 0.5\nsamples = 2\nvalue = [1, 1]"] ;
323 -> 324 ;
325 [label="gini = 0.0\nsamples = 1\nvalue = [0, 1]"] ;
324 -> 325 ;
326 [label="gini = 0.0\nsamples = 1\nvalue = [1, 0]"] ;
324 -> 326 ;
327 [label="gini = 0.0\nsamples = 3\nvalue = [0, 3]"] ;
323 -> 327 ;
328 [label="gini = 0.0\nsamples = 8\nvalue = [8, 0]"] ;
240 -> 328 ;
329 [label="image_ratio <= 0.131\ngini = 0.489\nsamples = 153\nvalue = [65, 88]"] ;
239 -> 329 ;
330 [label="html_ratio <= 0.175\ngini = 0.142\nsamples = 13\nvalue = [1, 12]"] ;
329 -> 330 ;
331 [label="gini = 0.0\nsamples = 11\nvalue = [0, 11]"] ;
330 -> 331 ;
332 [label="image_ratio <= 0.116\ngini = 0.5\nsamples = 2\nvalue = [1, 1]"] ;
330 -> 332 ;
333 [label="gini = 0.0\nsamples = 1\nvalue = [1, 0]"] ;
332 -> 333 ;
334 [label="gini = 0.0\nsamples = 1\nvalue = [0, 1]"] ;
332 -> 334 ;
335 [label="html_ratio <= 0.178\ngini = 0.496\nsamples = 140\nvalue = [64, 76]"] ;
329 -> 335 ;
336 [label="html_ratio <= 0.176\ngini = 0.5\nsamples = 115\nvalue = [56, 59]"] ;
335 -> 336 ;
337 [label="image_ratio <= 0.297\ngini = 0.493\nsamples = 95\nvalue = [42, 53]"] ;
336 -> 337 ;
338 [label="image_ratio <= 0.133\ngini = 0.5\nsamples = 77\nvalue = [38, 39]"] ;
337 -> 338 ;
339 [label="gini = 0.0\nsamples = 2\nvalue = [2, 0]"] ;
338 -> 339 ;
340 [label="image_ratio <= 0.145\ngini = 0.499\nsamples = 75\nvalue = [36, 39]"] ;
338 -> 340 ;
341 [label="html_ratio <= 0.172\ngini = 0.375\nsamples = 8\nvalue = [2, 6]"] ;
340 -> 341 ;
342 [label="image_ratio <= 0.135\ngini = 0.245\nsamples = 7\nvalue = [1, 6]"] ;
341 -> 342 ;
343 [label="html_ratio <= 0.171\ngini = 0.5\nsamples = 2\nvalue = [1, 1]"] ;
342 -> 343 ;
344 [label="gini = 0.0\nsamples = 1\nvalue = [1, 0]"] ;
343 -> 344 ;
345 [label="gini = 0.0\nsamples = 1\nvalue = [0, 1]"] ;
343 -> 345 ;
346 [label="gini = 0.0\nsamples = 5\nvalue = [0, 5]"] ;
342 -> 346 ;
347 [label="gini = 0.0\nsamples = 1\nvalue = [1, 0]"] ;
341 -> 347 ;
348 [label="image_ratio <= 0.161\ngini = 0.5\nsamples = 67\nvalue = [34, 33]"] ;
340 -> 348 ;
349 [label="html_ratio <= 0.175\ngini = 0.375\nsamples = 12\nvalue = [9, 3]"] ;
348 -> 349 ;
350 [label="html_ratio <= 0.162\ngini = 0.298\nsamples = 11\nvalue = [9, 2]"] ;
349 -> 350 ;
351 [label="image_ratio <= 0.151\ngini = 0.5\nsamples = 2\nvalue = [1, 1]"] ;
350 -> 351 ;
352 [label="gini = 0.0\nsamples = 1\nvalue = [1, 0]"] ;
351 -> 352 ;
353 [label="gini = 0.0\nsamples = 1\nvalue = [0, 1]"] ;
351 -> 353 ;
354 [label="html_ratio <= 0.17\ngini = 0.198\nsamples = 9\nvalue = [8, 1]"] ;
350 -> 354 ;
355 [label="gini = 0.0\nsamples = 6\nvalue = [6, 0]"] ;
354 -> 355 ;
356 [label="html_ratio <= 0.172\ngini = 0.444\nsamples = 3\nvalue = [2, 1]"] ;
354 -> 356 ;
357 [label="gini = 0.0\nsamples = 1\nvalue = [0, 1]"] ;
356 -> 357 ;
358 [label="gini = 0.0\nsamples = 2\nvalue = [2, 0]"] ;
356 -> 358 ;
359 [label="gini = 0.0\nsamples = 1\nvalue = [0, 1]"] ;
349 -> 359 ;
360 [label="html_ratio <= 0.164\ngini = 0.496\nsamples = 55\nvalue = [25, 30]"] ;
348 -> 360 ;
361 [label="image_ratio <= 0.249\ngini = 0.459\nsamples = 14\nvalue = [9, 5]"] ;
360 -> 361 ;
362 [label="html_ratio <= 0.162\ngini = 0.469\nsamples = 8\nvalue = [3, 5]"] ;
361 -> 362 ;
363 [label="gini = 0.0\nsamples = 4\nvalue = [0, 4]"] ;
362 -> 363 ;
364 [label="html_ratio <= 0.163\ngini = 0.375\nsamples = 4\nvalue = [3, 1]"] ;
362 -> 364 ;
365 [label="gini = 0.0\nsamples = 2\nvalue = [2, 0]"] ;
364 -> 365 ;
366 [label="html_ratio <= 0.163\ngini = 0.5\nsamples = 2\nvalue = [1, 1]"] ;
364 -> 366 ;
367 [label="gini = 0.0\nsamples = 1\nvalue = [0, 1]"] ;
366 -> 367 ;
368 [label="gini = 0.0\nsamples = 1\nvalue = [1, 0]"] ;
366 -> 368 ;
369 [label="gini = 0.0\nsamples = 6\nvalue = [6, 0]"] ;
361 -> 369 ;
370 [label="html_ratio <= 0.169\ngini = 0.476\nsamples = 41\nvalue = [16, 25]"] ;
360 -> 370 ;
371 [label="image_ratio <= 0.223\ngini = 0.298\nsamples = 11\nvalue = [2, 9]"] ;
370 -> 371 ;
372 [label="image_ratio <= 0.199\ngini = 0.5\nsamples = 4\nvalue = [2, 2]"] ;
371 -> 372 ;
373 [label="gini = 0.0\nsamples = 2\nvalue = [0, 2]"] ;
372 -> 373 ;
374 [label="gini = 0.0\nsamples = 2\nvalue = [2, 0]"] ;
372 -> 374 ;
375 [label="gini = 0.0\nsamples = 7\nvalue = [0, 7]"] ;
371 -> 375 ;
376 [label="html_ratio <= 0.171\ngini = 0.498\nsamples = 30\nvalue = [14, 16]"] ;
370 -> 376 ;
377 [label="gini = 0.0\nsamples = 4\nvalue = [4, 0]"] ;
376 -> 377 ;
378 [label="html_ratio <= 0.174\ngini = 0.473\nsamples = 26\nvalue = [10, 16]"] ;
376 -> 378 ;
379 [label="html_ratio <= 0.173\ngini = 0.375\nsamples = 16\nvalue = [4, 12]"] ;
378 -> 379 ;
380 [label="image_ratio <= 0.186\ngini = 0.463\nsamples = 11\nvalue = [4, 7]"] ;
379 -> 380 ;
381 [label="gini = 0.0\nsamples = 3\nvalue = [0, 3]"] ;
380 -> 381 ;
382 [label="image_ratio <= 0.209\ngini = 0.5\nsamples = 8\nvalue = [4, 4]"] ;
380 -> 382 ;
383 [label="gini = 0.0\nsamples = 2\nvalue = [2, 0]"] ;
382 -> 383 ;
384 [label="html_ratio <= 0.171\ngini = 0.444\nsamples = 6\nvalue = [2, 4]"] ;
382 -> 384 ;
385 [label="gini = 0.0\nsamples = 2\nvalue = [0, 2]"] ;
384 -> 385 ;
386 [label="image_ratio <= 0.238\ngini = 0.5\nsamples = 4\nvalue = [2, 2]"] ;
384 -> 386 ;
387 [label="gini = 0.0\nsamples = 1\nvalue = [0, 1]"] ;
386 -> 387 ;
388 [label="image_ratio <= 0.269\ngini = 0.444\nsamples = 3\nvalue = [2, 1]"] ;
386 -> 388 ;
389 [label="gini = 0.0\nsamples = 2\nvalue = [2, 0]"] ;
388 -> 389 ;
390 [label="gini = 0.0\nsamples = 1\nvalue = [0, 1]"] ;
388 -> 390 ;
391 [label="gini = 0.0\nsamples = 5\nvalue = [0, 5]"] ;
379 -> 391 ;
392 [label="html_ratio <= 0.175\ngini = 0.48\nsamples = 10\nvalue = [6, 4]"] ;
378 -> 392 ;
393 [label="gini = 0.0\nsamples = 4\nvalue = [4, 0]"] ;
392 -> 393 ;
394 [label="image_ratio <= 0.193\ngini = 0.444\nsamples = 6\nvalue = [2, 4]"] ;
392 -> 394 ;
395 [label="html_ratio <= 0.176\ngini = 0.444\nsamples = 3\nvalue = [2, 1]"] ;
394 -> 395 ;
396 [label="gini = 0.0\nsamples = 2\nvalue = [2, 0]"] ;
395 -> 396 ;
397 [label="gini = 0.0\nsamples = 1\nvalue = [0, 1]"] ;
395 -> 397 ;
398 [label="gini = 0.0\nsamples = 3\nvalue = [0, 3]"] ;
394 -> 398 ;
399 [label="image_ratio <= 0.318\ngini = 0.346\nsamples = 18\nvalue = [4, 14]"] ;
337 -> 399 ;
400 [label="gini = 0.0\nsamples = 5\nvalue = [0, 5]"] ;
399 -> 400 ;
401 [label="image_ratio <= 0.322\ngini = 0.426\nsamples = 13\nvalue = [4, 9]"] ;
399 -> 401 ;
402 [label="gini = 0.0\nsamples = 1\nvalue = [1, 0]"] ;
401 -> 402 ;
403 [label="html_ratio <= 0.172\ngini = 0.375\nsamples = 12\nvalue = [3, 9]"] ;
401 -> 403 ;
404 [label="image_ratio <= 0.363\ngini = 0.469\nsamples = 8\nvalue = [3, 5]"] ;
403 -> 404 ;
405 [label="html_ratio <= 0.167\ngini = 0.408\nsamples = 7\nvalue = [2, 5]"] ;
404 -> 405 ;
406 [label="gini = 0.0\nsamples = 4\nvalue = [0, 4]"] ;
405 -> 406 ;
407 [label="image_ratio <= 0.327\ngini = 0.444\nsamples = 3\nvalue = [2, 1]"] ;
405 -> 407 ;
408 [label="gini = 0.0\nsamples = 1\nvalue = [0, 1]"] ;
407 -> 408 ;
409 [label="gini = 0.0\nsamples = 2\nvalue = [2, 0]"] ;
407 -> 409 ;
410 [label="gini = 0.0\nsamples = 1\nvalue = [1, 0]"] ;
404 -> 410 ;
411 [label="gini = 0.0\nsamples = 4\nvalue = [0, 4]"] ;
403 -> 411 ;
412 [label="image_ratio <= 0.18\ngini = 0.42\nsamples = 20\nvalue = [14, 6]"] ;
336 -> 412 ;
413 [label="html_ratio <= 0.178\ngini = 0.32\nsamples = 5\nvalue = [1, 4]"] ;
412 -> 413 ;
414 [label="gini = 0.0\nsamples = 4\nvalue = [0, 4]"] ;
413 -> 414 ;
415 [label="gini = 0.0\nsamples = 1\nvalue = [1, 0]"] ;
413 -> 415 ;
416 [label="html_ratio <= 0.177\ngini = 0.231\nsamples = 15\nvalue = [13, 2]"] ;
412 -> 416 ;
417 [label="gini = 0.0\nsamples = 10\nvalue = [10, 0]"] ;
416 -> 417 ;
418 [label="html_ratio <= 0.178\ngini = 0.48\nsamples = 5\nvalue = [3, 2]"] ;
416 -> 418 ;
419 [label="image_ratio <= 0.223\ngini = 0.444\nsamples = 3\nvalue = [1, 2]"] ;
418 -> 419 ;
420 [label="gini = 0.0\nsamples = 1\nvalue = [1, 0]"] ;
419 -> 420 ;
421 [label="gini = 0.0\nsamples = 2\nvalue = [0, 2]"] ;
419 -> 421 ;
422 [label="gini = 0.0\nsamples = 2\nvalue = [2, 0]"] ;
418 -> 422 ;
423 [label="html_ratio <= 0.179\ngini = 0.435\nsamples = 25\nvalue = [8, 17]"] ;
335 -> 423 ;
424 [label="image_ratio <= 0.151\ngini = 0.198\nsamples = 9\nvalue = [1, 8]"] ;
423 -> 424 ;
425 [label="gini = 0.0\nsamples = 1\nvalue = [1, 0]"] ;
424 -> 425 ;
426 [label="gini = 0.0\nsamples = 8\nvalue = [0, 8]"] ;
424 -> 426 ;
427 [label="image_ratio <= 0.169\ngini = 0.492\nsamples = 16\nvalue = [7, 9]"] ;
423 -> 427 ;
428 [label="gini = 0.0\nsamples = 4\nvalue = [0, 4]"] ;
427 -> 428 ;
429 [label="image_ratio <= 0.207\ngini = 0.486\nsamples = 12\nvalue = [7, 5]"] ;
427 -> 429 ;
430 [label="gini = 0.0\nsamples = 3\nvalue = [3, 0]"] ;
429 -> 430 ;
431 [label="html_ratio <= 0.179\ngini = 0.494\nsamples = 9\nvalue = [4, 5]"] ;
429 -> 431 ;
432 [label="gini = 0.0\nsamples = 1\nvalue = [1, 0]"] ;
431 -> 432 ;
433 [label="html_ratio <= 0.179\ngini = 0.469\nsamples = 8\nvalue = [3, 5]"] ;
431 -> 433 ;
434 [label="gini = 0.0\nsamples = 3\nvalue = [0, 3]"] ;
433 -> 434 ;
435 [label="html_ratio <= 0.181\ngini = 0.48\nsamples = 5\nvalue = [3, 2]"] ;
433 -> 435 ;
436 [label="image_ratio <= 0.346\ngini = 0.375\nsamples = 4\nvalue = [3, 1]"] ;
435 -> 436 ;
437 [label="gini = 0.0\nsamples = 3\nvalue = [3, 0]"] ;
436 -> 437 ;
438 [label="gini = 0.0\nsamples = 1\nvalue = [0, 1]"] ;
436 -> 438 ;
439 [label="gini = 0.0\nsamples = 1\nvalue = [0, 1]"] ;
435 -> 439 ;
440 [label="html_ratio <= 0.201\ngini = 0.468\nsamples = 471\nvalue = [176, 295]"] ;
236 -> 440 ;
441 [label="image_ratio <= 0.365\ngini = 0.471\nsamples = 463\nvalue = [176, 287]"] ;
440 -> 441 ;
442 [label="image_ratio <= 0.251\ngini = 0.474\nsamples = 457\nvalue = [176, 281]"] ;
441 -> 442 ;
443 [label="image_ratio <= 0.121\ngini = 0.461\nsamples = 385\nvalue = [139, 246]"] ;
442 -> 443 ;
444 [label="image_ratio <= 0.119\ngini = 0.48\nsamples = 225\nvalue = [90, 135]"] ;
443 -> 444 ;
445 [label="html_ratio <= 0.201\ngini = 0.477\nsamples = 222\nvalue = [87, 135]"] ;
444 -> 445 ;
446 [label="html_ratio <= 0.2\ngini = 0.474\nsamples = 220\nvalue = [85, 135]"] ;
445 -> 446 ;
447 [label="html_ratio <= 0.197\ngini = 0.482\nsamples = 205\nvalue = [83, 122]"] ;
446 -> 447 ;
448 [label="html_ratio <= 0.182\ngini = 0.467\nsamples = 164\nvalue = [61, 103]"] ;
447 -> 448 ;
449 [label="html_ratio <= 0.181\ngini = 0.375\nsamples = 4\nvalue = [3, 1]"] ;
448 -> 449 ;
450 [label="gini = 0.0\nsamples = 1\nvalue = [0, 1]"] ;
449 -> 450 ;
451 [label="gini = 0.0\nsamples = 3\nvalue = [3, 0]"] ;
449 -> 451 ;
452 [label="image_ratio <= 0.039\ngini = 0.462\nsamples = 160\nvalue = [58, 102]"] ;
448 -> 452 ;
453 [label="image_ratio <= 0.028\ngini = 0.5\nsamples = 20\nvalue = [10, 10]"] ;
452 -> 453 ;
454 [label="html_ratio <= 0.192\ngini = 0.444\nsamples = 12\nvalue = [4, 8]"] ;
453 -> 454 ;
455 [label="html_ratio <= 0.184\ngini = 0.219\nsamples = 8\nvalue = [1, 7]"] ;
454 -> 455 ;
456 [label="image_ratio <= 0.021\ngini = 0.5\nsamples = 2\nvalue = [1, 1]"] ;
455 -> 456 ;
457 [label="gini = 0.0\nsamples = 1\nvalue = [0, 1]"] ;
456 -> 457 ;
458 [label="gini = 0.0\nsamples = 1\nvalue = [1, 0]"] ;
456 -> 458 ;
459 [label="gini = 0.0\nsamples = 6\nvalue = [0, 6]"] ;
455 -> 459 ;
460 [label="html_ratio <= 0.196\ngini = 0.375\nsamples = 4\nvalue = [3, 1]"] ;
454 -> 460 ;
461 [label="gini = 0.0\nsamples = 3\nvalue = [3, 0]"] ;
460 -> 461 ;
462 [label="gini = 0.0\nsamples = 1\nvalue = [0, 1]"] ;
460 -> 462 ;
463 [label="image_ratio <= 0.031\ngini = 0.375\nsamples = 8\nvalue = [6, 2]"] ;
453 -> 463 ;
464 [label="gini = 0.0\nsamples = 2\nvalue = [2, 0]"] ;
463 -> 464 ;
465 [label="image_ratio <= 0.032\ngini = 0.444\nsamples = 6\nvalue = [4, 2]"] ;
463 -> 465 ;
466 [label="gini = 0.0\nsamples = 1\nvalue = [0, 1]"] ;
465 -> 466 ;
467 [label="image_ratio <= 0.037\ngini = 0.32\nsamples = 5\nvalue = [4, 1]"] ;
465 -> 467 ;
468 [label="gini = 0.0\nsamples = 3\nvalue = [3, 0]"] ;
467 -> 468 ;
469 [label="html_ratio <= 0.189\ngini = 0.5\nsamples = 2\nvalue = [1, 1]"] ;
467 -> 469 ;
470 [label="gini = 0.0\nsamples = 1\nvalue = [0, 1]"] ;
469 -> 470 ;
471 [label="gini = 0.0\nsamples = 1\nvalue = [1, 0]"] ;
469 -> 471 ;
472 [label="html_ratio <= 0.19\ngini = 0.451\nsamples = 140\nvalue = [48, 92]"] ;
452 -> 472 ;
473 [label="html_ratio <= 0.188\ngini = 0.485\nsamples = 75\nvalue = [31, 44]"] ;
472 -> 473 ;
474 [label="image_ratio <= 0.06\ngini = 0.432\nsamples = 57\nvalue = [18, 39]"] ;
473 -> 474 ;
475 [label="image_ratio <= 0.055\ngini = 0.497\nsamples = 13\nvalue = [7, 6]"] ;
474 -> 475 ;
476 [label="image_ratio <= 0.052\ngini = 0.444\nsamples = 9\nvalue = [3, 6]"] ;
475 -> 476 ;
477 [label="image_ratio <= 0.048\ngini = 0.5\nsamples = 6\nvalue = [3, 3]"] ;
476 -> 477 ;
478 [label="html_ratio <= 0.183\ngini = 0.375\nsamples = 4\nvalue = [1, 3]"] ;
477 -> 478 ;
479 [label="gini = 0.0\nsamples = 1\nvalue = [1, 0]"] ;
478 -> 479 ;
480 [label="gini = 0.0\nsamples = 3\nvalue = [0, 3]"] ;
478 -> 480 ;
481 [label="gini = 0.0\nsamples = 2\nvalue = [2, 0]"] ;
477 -> 481 ;
482 [label="gini = 0.0\nsamples = 3\nvalue = [0, 3]"] ;
476 -> 482 ;
483 [label="gini = 0.0\nsamples = 4\nvalue = [4, 0]"] ;
475 -> 483 ;
484 [label="image_ratio <= 0.089\ngini = 0.375\nsamples = 44\nvalue = [11, 33]"] ;
474 -> 484 ;
485 [label="gini = 0.0\nsamples = 16\nvalue = [0, 16]"] ;
484 -> 485 ;
486 [label="image_ratio <= 0.113\ngini = 0.477\nsamples = 28\nvalue = [11, 17]"] ;
484 -> 486 ;
487 [label="image_ratio <= 0.094\ngini = 0.494\nsamples = 18\nvalue = [10, 8]"] ;
486 -> 487 ;
488 [label="gini = 0.0\nsamples = 3\nvalue = [3, 0]"] ;
487 -> 488 ;
489 [label="image_ratio <= 0.097\ngini = 0.498\nsamples = 15\nvalue = [7, 8]"] ;
487 -> 489 ;
490 [label="gini = 0.0\nsamples = 3\nvalue = [0, 3]"] ;
489 -> 490 ;
491 [label="html_ratio <= 0.187\ngini = 0.486\nsamples = 12\nvalue = [7, 5]"] ;
489 -> 491 ;
492 [label="html_ratio <= 0.185\ngini = 0.494\nsamples = 9\nvalue = [4, 5]"] ;
491 -> 492 ;
493 [label="image_ratio <= 0.109\ngini = 0.375\nsamples = 4\nvalue = [3, 1]"] ;
492 -> 493 ;
494 [label="gini = 0.0\nsamples = 3\nvalue = [3, 0]"] ;
493 -> 494 ;
495 [label="gini = 0.0\nsamples = 1\nvalue = [0, 1]"] ;
493 -> 495 ;
496 [label="image_ratio <= 0.1\ngini = 0.32\nsamples = 5\nvalue = [1, 4]"] ;
492 -> 496 ;
497 [label="html_ratio <= 0.186\ngini = 0.5\nsamples = 2\nvalue = [1, 1]"] ;
496 -> 497 ;
498 [label="gini = 0.0\nsamples = 1\nvalue = [1, 0]"] ;
497 -> 498 ;
499 [label="gini = 0.0\nsamples = 1\nvalue = [0, 1]"] ;
497 -> 499 ;
500 [label="gini = 0.0\nsamples = 3\nvalue = [0, 3]"] ;
496 -> 500 ;
501 [label="gini = 0.0\nsamples = 3\nvalue = [3, 0]"] ;
491 -> 501 ;
502 [label="image_ratio <= 0.117\ngini = 0.18\nsamples = 10\nvalue = [1, 9]"] ;
486 -> 502 ;
503 [label="gini = 0.0\nsamples = 7\nvalue = [0, 7]"] ;
502 -> 503 ;
504 [label="image_ratio <= 0.118\ngini = 0.444\nsamples = 3\nvalue = [1, 2]"] ;
502 -> 504 ;
505 [label="gini = 0.0\nsamples = 1\nvalue = [1, 0]"] ;
504 -> 505 ;
506 [label="gini = 0.0\nsamples = 2\nvalue = [0, 2]"] ;
504 -> 506 ;
507 [label="image_ratio <= 0.074\ngini = 0.401\nsamples = 18\nvalue = [13, 5]"] ;
473 -> 507 ;
508 [label="html_ratio <= 0.19\ngini = 0.48\nsamples = 5\nvalue = [2, 3]"] ;
507 -> 508 ;
509 [label="html_ratio <= 0.189\ngini = 0.375\nsamples = 4\nvalue = [1, 3]"] ;
508 -> 509 ;
510 [label="html_ratio <= 0.189\ngini = 0.5\nsamples = 2\nvalue = [1, 1]"] ;
509 -> 510 ;
511 [label="gini = 0.0\nsamples = 1\nvalue = [0, 1]"] ;
510 -> 511 ;
512 [label="gini = 0.0\nsamples = 1\nvalue = [1, 0]"] ;
510 -> 512 ;
513 [label="gini = 0.0\nsamples = 2\nvalue = [0, 2]"] ;
509 -> 513 ;
514 [label="gini = 0.0\nsamples = 1\nvalue = [1, 0]"] ;
508 -> 514 ;
515 [label="image_ratio <= 0.105\ngini = 0.26\nsamples = 13\nvalue = [11, 2]"] ;
507 -> 515 ;
516 [label="gini = 0.0\nsamples = 8\nvalue = [8, 0]"] ;
515 -> 516 ;
517 [label="image_ratio <= 0.111\ngini = 0.48\nsamples = 5\nvalue = [3, 2]"] ;
515 -> 517 ;
518 [label="gini = 0.0\nsamples = 2\nvalue = [0, 2]"] ;
517 -> 518 ;
519 [label="gini = 0.0\nsamples = 3\nvalue = [3, 0]"] ;
517 -> 519 ;
520 [label="image_ratio <= 0.106\ngini = 0.386\nsamples = 65\nvalue = [17, 48]"] ;
472 -> 520 ;
521 [label="image_ratio <= 0.046\ngini = 0.32\nsamples = 50\nvalue = [10, 40]"] ;
520 -> 521 ;
522 [label="gini = 0.0\nsamples = 6\nvalue = [0, 6]"] ;
521 -> 522 ;
523 [label="image_ratio <= 0.047\ngini = 0.351\nsamples = 44\nvalue = [10, 34]"] ;
521 -> 523 ;
524 [label="gini = 0.0\nsamples = 1\nvalue = [1, 0]"] ;
523 -> 524 ;
525 [label="html_ratio <= 0.192\ngini = 0.331\nsamples = 43\nvalue = [9, 34]"] ;
523 -> 525 ;
526 [label="gini = 0.0\nsamples = 11\nvalue = [0, 11]"] ;
525 -> 526 ;
527 [label="image_ratio <= 0.05\ngini = 0.404\nsamples = 32\nvalue = [9, 23]"] ;
525 -> 527 ;
528 [label="html_ratio <= 0.194\ngini = 0.48\nsamples = 5\nvalue = [3, 2]"] ;
527 -> 528 ;
529 [label="gini = 0.0\nsamples = 2\nvalue = [0, 2]"] ;
528 -> 529 ;
530 [label="gini = 0.0\nsamples = 3\nvalue = [3, 0]"] ;
528 -> 530 ;
531 [label="html_ratio <= 0.194\ngini = 0.346\nsamples = 27\nvalue = [6, 21]"] ;
527 -> 531 ;
532 [label="image_ratio <= 0.07\ngini = 0.5\nsamples = 8\nvalue = [4, 4]"] ;
531 -> 532 ;
533 [label="gini = 0.0\nsamples = 3\nvalue = [3, 0]"] ;
532 -> 533 ;
534 [label="html_ratio <= 0.193\ngini = 0.32\nsamples = 5\nvalue = [1, 4]"] ;
532 -> 534 ;
535 [label="gini = 0.0\nsamples = 1\nvalue = [1, 0]"] ;
534 -> 535 ;
536 [label="gini = 0.0\nsamples = 4\nvalue = [0, 4]"] ;
534 -> 536 ;
537 [label="image_ratio <= 0.08\ngini = 0.188\nsamples = 19\nvalue = [2, 17]"] ;
531 -> 537 ;
538 [label="gini = 0.0\nsamples = 11\nvalue = [0, 11]"] ;
537 -> 538 ;
539 [label="image_ratio <= 0.083\ngini = 0.375\nsamples = 8\nvalue = [2, 6]"] ;
537 -> 539 ;
540 [label="gini = 0.0\nsamples = 1\nvalue = [1, 0]"] ;
539 -> 540 ;
541 [label="html_ratio <= 0.195\ngini = 0.245\nsamples = 7\nvalue = [1, 6]"] ;
539 -> 541 ;
542 [label="html_ratio <= 0.194\ngini = 0.5\nsamples = 2\nvalue = [1, 1]"] ;
541 -> 542 ;
543 [label="gini = 0.0\nsamples = 1\nvalue = [0, 1]"] ;
542 -> 543 ;
544 [label="gini = 0.0\nsamples = 1\nvalue = [1, 0]"] ;
542 -> 544 ;
545 [label="gini = 0.0\nsamples = 5\nvalue = [0, 5]"] ;
541 -> 545 ;
546 [label="html_ratio <= 0.196\ngini = 0.498\nsamples = 15\nvalue = [7, 8]"] ;
520 -> 546 ;
547 [label="image_ratio <= 0.114\ngini = 0.397\nsamples = 11\nvalue = [3, 8]"] ;
546 -> 547 ;
548 [label="image_ratio <= 0.111\ngini = 0.5\nsamples = 6\nvalue = [3, 3]"] ;
547 -> 548 ;
549 [label="image_ratio <= 0.108\ngini = 0.375\nsamples = 4\nvalue = [1, 3]"] ;
548 -> 549 ;
550 [label="gini = 0.0\nsamples = 1\nvalue = [1, 0]"] ;
549 -> 550 ;
551 [label="gini = 0.0\nsamples = 3\nvalue = [0, 3]"] ;
549 -> 551 ;
552 [label="gini = 0.0\nsamples = 2\nvalue = [2, 0]"] ;
548 -> 552 ;
553 [label="gini = 0.0\nsamples = 5\nvalue = [0, 5]"] ;
547 -> 553 ;
554 [label="gini = 0.0\nsamples = 4\nvalue = [4, 0]"] ;
546 -> 554 ;
555 [label="html_ratio <= 0.197\ngini = 0.497\nsamples = 41\nvalue = [22, 19]"] ;
447 -> 555 ;
556 [label="gini = 0.0\nsamples = 4\nvalue = [4, 0]"] ;
555 -> 556 ;
557 [label="html_ratio <= 0.198\ngini = 0.5\nsamples = 37\nvalue = [18, 19]"] ;
555 -> 557 ;
558 [label="image_ratio <= 0.098\ngini = 0.375\nsamples = 8\nvalue = [2, 6]"] ;
557 -> 558 ;
559 [label="gini = 0.0\nsamples = 5\nvalue = [0, 5]"] ;
558 -> 559 ;
560 [label="image_ratio <= 0.108\ngini = 0.444\nsamples = 3\nvalue = [2, 1]"] ;
558 -> 560 ;
561 [label="gini = 0.0\nsamples = 2\nvalue = [2, 0]"] ;
560 -> 561 ;
562 [label="gini = 0.0\nsamples = 1\nvalue = [0, 1]"] ;
560 -> 562 ;
563 [label="html_ratio <= 0.199\ngini = 0.495\nsamples = 29\nvalue = [16, 13]"] ;
557 -> 563 ;
564 [label="image_ratio <= 0.086\ngini = 0.355\nsamples = 13\nvalue = [10, 3]"] ;
563 -> 564 ;
565 [label="gini = 0.0\nsamples = 5\nvalue = [5, 0]"] ;
564 -> 565 ;
566 [label="image_ratio <= 0.087\ngini = 0.469\nsamples = 8\nvalue = [5, 3]"] ;
564 -> 566 ;
567 [label="gini = 0.0\nsamples = 1\nvalue = [0, 1]"] ;
566 -> 567 ;
568 [label="html_ratio <= 0.198\ngini = 0.408\nsamples = 7\nvalue = [5, 2]"] ;
566 -> 568 ;
569 [label="gini = 0.0\nsamples = 3\nvalue = [3, 0]"] ;
568 -> 569 ;
570 [label="html_ratio <= 0.198\ngini = 0.5\nsamples = 4\nvalue = [2, 2]"] ;
568 -> 570 ;
571 [label="gini = 0.0\nsamples = 1\nvalue = [0, 1]"] ;
570 -> 571 ;
572 [label="html_ratio <= 0.198\ngini = 0.444\nsamples = 3\nvalue = [2, 1]"] ;
570 -> 572 ;
573 [label="gini = 0.0\nsamples = 1\nvalue = [1, 0]"] ;
572 -> 573 ;
574 [label="image_ratio <= 0.09\ngini = 0.5\nsamples = 2\nvalue = [1, 1]"] ;
572 -> 574 ;
575 [label="gini = 0.0\nsamples = 1\nvalue = [1, 0]"] ;
574 -> 575 ;
576 [label="gini = 0.0\nsamples = 1\nvalue = [0, 1]"] ;
574 -> 576 ;
577 [label="image_ratio <= 0.087\ngini = 0.469\nsamples = 16\nvalue = [6, 10]"] ;
563 -> 577 ;
578 [label="html_ratio <= 0.199\ngini = 0.496\nsamples = 11\nvalue = [6, 5]"] ;
577 -> 578 ;
579 [label="gini = 0.0\nsamples = 3\nvalue = [0, 3]"] ;
578 -> 579 ;
580 [label="image_ratio <= 0.071\ngini = 0.375\nsamples = 8\nvalue = [6, 2]"] ;
578 -> 580 ;
581 [label="image_ratio <= 0.056\ngini = 0.444\nsamples = 3\nvalue = [1, 2]"] ;
580 -> 581 ;
582 [label="gini = 0.0\nsamples = 1\nvalue = [1, 0]"] ;
581 -> 582 ;
583 [label="gini = 0.0\nsamples = 2\nvalue = [0, 2]"] ;
581 -> 583 ;
584 [label="gini = 0.0\nsamples = 5\nvalue = [5, 0]"] ;
580 -> 584 ;
585 [label="gini = 0.0\nsamples = 5\nvalue = [0, 5]"] ;
577 -> 585 ;
586 [label="image_ratio <= 0.051\ngini = 0.231\nsamples = 15\nvalue = [2, 13]"] ;
446 -> 586 ;
587 [label="html_ratio <= 0.201\ngini = 0.5\nsamples = 4\nvalue = [2, 2]"] ;
586 -> 587 ;
588 [label="gini = 0.0\nsamples = 2\nvalue = [0, 2]"] ;
587 -> 588 ;
589 [label="gini = 0.0\nsamples = 2\nvalue = [2, 0]"] ;
587 -> 589 ;
590 [label="gini = 0.0\nsamples = 11\nvalue = [0, 11]"] ;
586 -> 590 ;
591 [label="gini = 0.0\nsamples = 2\nvalue = [2, 0]"] ;
445 -> 591 ;
592 [label="gini = 0.0\nsamples = 3\nvalue = [3, 0]"] ;
444 -> 592 ;
593 [label="html_ratio <= 0.184\ngini = 0.425\nsamples = 160\nvalue = [49, 111]"] ;
443 -> 593 ;
594 [label="html_ratio <= 0.183\ngini = 0.18\nsamples = 20\nvalue = [2, 18]"] ;
593 -> 594 ;
595 [label="html_ratio <= 0.183\ngini = 0.32\nsamples = 10\nvalue = [2, 8]"] ;
594 -> 595 ;
596 [label="gini = 0.0\nsamples = 8\nvalue = [0, 8]"] ;
595 -> 596 ;
597 [label="gini = 0.0\nsamples = 2\nvalue = [2, 0]"] ;
595 -> 597 ;
598 [label="gini = 0.0\nsamples = 10\nvalue = [0, 10]"] ;
594 -> 598 ;
599 [label="html_ratio <= 0.184\ngini = 0.446\nsamples = 140\nvalue = [47, 93]"] ;
593 -> 599 ;
600 [label="gini = 0.0\nsamples = 3\nvalue = [3, 0]"] ;
599 -> 600 ;
601 [label="image_ratio <= 0.126\ngini = 0.436\nsamples = 137\nvalue = [44, 93]"] ;
599 -> 601 ;
602 [label="gini = 0.0\nsamples = 5\nvalue = [0, 5]"] ;
601 -> 602 ;
603 [label="html_ratio <= 0.201\ngini = 0.444\nsamples = 132\nvalue = [44, 88]"] ;
601 -> 603 ;
604 [label="image_ratio <= 0.126\ngini = 0.441\nsamples = 131\nvalue = [43, 88]"] ;
603 -> 604 ;
605 [label="gini = 0.0\nsamples = 1\nvalue = [1, 0]"] ;
604 -> 605 ;
606 [label="image_ratio <= 0.18\ngini = 0.437\nsamples = 130\nvalue = [42, 88]"] ;
604 -> 606 ;
607 [label="html_ratio <= 0.196\ngini = 0.397\nsamples = 66\nvalue = [18, 48]"] ;
606 -> 607 ;
608 [label="image_ratio <= 0.129\ngini = 0.444\nsamples = 48\nvalue = [16, 32]"] ;
607 -> 608 ;
609 [label="gini = 0.0\nsamples = 5\nvalue = [0, 5]"] ;
608 -> 609 ;
610 [label="image_ratio <= 0.131\ngini = 0.467\nsamples = 43\nvalue = [16, 27]"] ;
608 -> 610 ;
611 [label="gini = 0.0\nsamples = 2\nvalue = [2, 0]"] ;
610 -> 611 ;
612 [label="html_ratio <= 0.196\ngini = 0.45\nsamples = 41\nvalue = [14, 27]"] ;
610 -> 612 ;
613 [label="image_ratio <= 0.18\ngini = 0.439\nsamples = 40\nvalue = [13, 27]"] ;
612 -> 613 ;
614 [label="image_ratio <= 0.178\ngini = 0.456\nsamples = 37\nvalue = [13, 24]"] ;
613 -> 614 ;
615 [label="image_ratio <= 0.16\ngini = 0.431\nsamples = 35\nvalue = [11, 24]"] ;
614 -> 615 ;
616 [label="image_ratio <= 0.147\ngini = 0.476\nsamples = 23\nvalue = [9, 14]"] ;
615 -> 616 ;
617 [label="html_ratio <= 0.189\ngini = 0.408\nsamples = 14\nvalue = [4, 10]"] ;
616 -> 617 ;
618 [label="gini = 0.0\nsamples = 5\nvalue = [0, 5]"] ;
617 -> 618 ;
619 [label="html_ratio <= 0.19\ngini = 0.494\nsamples = 9\nvalue = [4, 5]"] ;
617 -> 619 ;
620 [label="gini = 0.0\nsamples = 1\nvalue = [1, 0]"] ;
619 -> 620 ;
621 [label="image_ratio <= 0.132\ngini = 0.469\nsamples = 8\nvalue = [3, 5]"] ;
619 -> 621 ;
622 [label="image_ratio <= 0.132\ngini = 0.444\nsamples = 3\nvalue = [2, 1]"] ;
621 -> 622 ;
623 [label="gini = 0.0\nsamples = 1\nvalue = [0, 1]"] ;
622 -> 623 ;
624 [label="gini = 0.0\nsamples = 2\nvalue = [2, 0]"] ;
622 -> 624 ;
625 [label="html_ratio <= 0.192\ngini = 0.32\nsamples = 5\nvalue = [1, 4]"] ;
621 -> 625 ;
626 [label="gini = 0.0\nsamples = 2\nvalue = [0, 2]"] ;
625 -> 626 ;
627 [label="html_ratio <= 0.193\ngini = 0.444\nsamples = 3\nvalue = [1, 2]"] ;
625 -> 627 ;
628 [label="gini = 0.0\nsamples = 1\nvalue = [1, 0]"] ;
627 -> 628 ;
629 [label="gini = 0.0\nsamples = 2\nvalue = [0, 2]"] ;
627 -> 629 ;
630 [label="html_ratio <= 0.185\ngini = 0.494\nsamples = 9\nvalue = [5, 4]"] ;
616 -> 630 ;
631 [label="gini = 0.0\nsamples = 2\nvalue = [2, 0]"] ;
630 -> 631 ;
632 [label="image_ratio <= 0.154\ngini = 0.49\nsamples = 7\nvalue = [3, 4]"] ;
630 -> 632 ;
633 [label="html_ratio <= 0.196\ngini = 0.375\nsamples = 4\nvalue = [3, 1]"] ;
632 -> 633 ;
634 [label="gini = 0.0\nsamples = 3\nvalue = [3, 0]"] ;
633 -> 634 ;
635 [label="gini = 0.0\nsamples = 1\nvalue = [0, 1]"] ;
633 -> 635 ;
636 [label="gini = 0.0\nsamples = 3\nvalue = [0, 3]"] ;
632 -> 636 ;
637 [label="html_ratio <= 0.189\ngini = 0.278\nsamples = 12\nvalue = [2, 10]"] ;
615 -> 637 ;
638 [label="gini = 0.0\nsamples = 6\nvalue = [0, 6]"] ;
637 -> 638 ;
639 [label="html_ratio <= 0.192\ngini = 0.444\nsamples = 6\nvalue = [2, 4]"] ;
637 -> 639 ;
640 [label="gini = 0.0\nsamples = 2\nvalue = [2, 0]"] ;
639 -> 640 ;
641 [label="gini = 0.0\nsamples = 4\nvalue = [0, 4]"] ;
639 -> 641 ;
642 [label="gini = 0.0\nsamples = 2\nvalue = [2, 0]"] ;
614 -> 642 ;
643 [label="gini = 0.0\nsamples = 3\nvalue = [0, 3]"] ;
613 -> 643 ;
644 [label="gini = 0.0\nsamples = 1\nvalue = [1, 0]"] ;
612 -> 644 ;
645 [label="image_ratio <= 0.132\ngini = 0.198\nsamples = 18\nvalue = [2, 16]"] ;
607 -> 645 ;
646 [label="gini = 0.0\nsamples = 1\nvalue = [1, 0]"] ;
645 -> 646 ;
647 [label="html_ratio <= 0.201\ngini = 0.111\nsamples = 17\nvalue = [1, 16]"] ;
645 -> 647 ;
648 [label="gini = 0.0\nsamples = 15\nvalue = [0, 15]"] ;
647 -> 648 ;
649 [label="image_ratio <= 0.17\ngini = 0.5\nsamples = 2\nvalue = [1, 1]"] ;
647 -> 649 ;
650 [label="gini = 0.0\nsamples = 1\nvalue = [0, 1]"] ;
649 -> 650 ;
651 [label="gini = 0.0\nsamples = 1\nvalue = [1, 0]"] ;
649 -> 651 ;
652 [label="image_ratio <= 0.182\ngini = 0.469\nsamples = 64\nvalue = [24, 40]"] ;
606 -> 652 ;
653 [label="gini = 0.0\nsamples = 3\nvalue = [3, 0]"] ;
652 -> 653 ;
654 [label="html_ratio <= 0.194\ngini = 0.451\nsamples = 61\nvalue = [21, 40]"] ;
652 -> 654 ;
655 [label="image_ratio <= 0.193\ngini = 0.393\nsamples = 41\nvalue = [11, 30]"] ;
654 -> 655 ;
656 [label="html_ratio <= 0.193\ngini = 0.375\nsamples = 4\nvalue = [3, 1]"] ;
655 -> 656 ;
657 [label="gini = 0.0\nsamples = 3\nvalue = [3, 0]"] ;
656 -> 657 ;
658 [label="gini = 0.0\nsamples = 1\nvalue = [0, 1]"] ;
656 -> 658 ;
659 [label="html_ratio <= 0.188\ngini = 0.339\nsamples = 37\nvalue = [8, 29]"] ;
655 -> 659 ;
660 [label="image_ratio <= 0.229\ngini = 0.48\nsamples = 15\nvalue = [6, 9]"] ;
659 -> 660 ;
661 [label="html_ratio <= 0.186\ngini = 0.32\nsamples = 10\nvalue = [2, 8]"] ;
660 -> 661 ;
662 [label="gini = 0.0\nsamples = 5\nvalue = [0, 5]"] ;
661 -> 662 ;
663 [label="image_ratio <= 0.212\ngini = 0.48\nsamples = 5\nvalue = [2, 3]"] ;
661 -> 663 ;
664 [label="html_ratio <= 0.187\ngini = 0.375\nsamples = 4\nvalue = [1, 3]"] ;
663 -> 664 ;
665 [label="gini = 0.0\nsamples = 1\nvalue = [1, 0]"] ;
664 -> 665 ;
666 [label="gini = 0.0\nsamples = 3\nvalue = [0, 3]"] ;
664 -> 666 ;
667 [label="gini = 0.0\nsamples = 1\nvalue = [1, 0]"] ;
663 -> 667 ;
668 [label="html_ratio <= 0.187\ngini = 0.32\nsamples = 5\nvalue = [4, 1]"] ;
660 -> 668 ;
669 [label="gini = 0.0\nsamples = 3\nvalue = [3, 0]"] ;
668 -> 669 ;
670 [label="html_ratio <= 0.188\ngini = 0.5\nsamples = 2\nvalue = [1, 1]"] ;
668 -> 670 ;
671 [label="gini = 0.0\nsamples = 1\nvalue = [0, 1]"] ;
670 -> 671 ;
672 [label="gini = 0.0\nsamples = 1\nvalue = [1, 0]"] ;
670 -> 672 ;
673 [label="image_ratio <= 0.222\ngini = 0.165\nsamples = 22\nvalue = [2, 20]"] ;
659 -> 673 ;
674 [label="html_ratio <= 0.191\ngini = 0.444\nsamples = 6\nvalue = [2, 4]"] ;
673 -> 674 ;
675 [label="gini = 0.0\nsamples = 3\nvalue = [0, 3]"] ;
674 -> 675 ;
676 [label="image_ratio <= 0.203\ngini = 0.444\nsamples = 3\nvalue = [2, 1]"] ;
674 -> 676 ;
677 [label="gini = 0.0\nsamples = 1\nvalue = [0, 1]"] ;
676 -> 677 ;
678 [label="gini = 0.0\nsamples = 2\nvalue = [2, 0]"] ;
676 -> 678 ;
679 [label="gini = 0.0\nsamples = 16\nvalue = [0, 16]"] ;
673 -> 679 ;
680 [label="image_ratio <= 0.186\ngini = 0.5\nsamples = 20\nvalue = [10, 10]"] ;
654 -> 680 ;
681 [label="gini = 0.0\nsamples = 4\nvalue = [0, 4]"] ;
680 -> 681 ;
682 [label="html_ratio <= 0.197\ngini = 0.469\nsamples = 16\nvalue = [10, 6]"] ;
680 -> 682 ;
683 [label="gini = 0.0\nsamples = 5\nvalue = [5, 0]"] ;
682 -> 683 ;
684 [label="html_ratio <= 0.198\ngini = 0.496\nsamples = 11\nvalue = [5, 6]"] ;
682 -> 684 ;
685 [label="gini = 0.0\nsamples = 3\nvalue = [0, 3]"] ;
684 -> 685 ;
686 [label="html_ratio <= 0.199\ngini = 0.469\nsamples = 8\nvalue = [5, 3]"] ;
684 -> 686 ;
687 [label="gini = 0.0\nsamples = 3\nvalue = [3, 0]"] ;
686 -> 687 ;
688 [label="image_ratio <= 0.204\ngini = 0.48\nsamples = 5\nvalue = [2, 3]"] ;
686 -> 688 ;
689 [label="gini = 0.0\nsamples = 1\nvalue = [1, 0]"] ;
688 -> 689 ;
690 [label="image_ratio <= 0.232\ngini = 0.375\nsamples = 4\nvalue = [1, 3]"] ;
688 -> 690 ;
691 [label="gini = 0.0\nsamples = 2\nvalue = [0, 2]"] ;
690 -> 691 ;
692 [label="html_ratio <= 0.2\ngini = 0.5\nsamples = 2\nvalue = [1, 1]"] ;
690 -> 692 ;
693 [label="gini = 0.0\nsamples = 1\nvalue = [0, 1]"] ;
692 -> 693 ;
694 [label="gini = 0.0\nsamples = 1\nvalue = [1, 0]"] ;
692 -> 694 ;
695 [label="gini = 0.0\nsamples = 1\nvalue = [1, 0]"] ;
603 -> 695 ;
696 [label="image_ratio <= 0.253\ngini = 0.5\nsamples = 72\nvalue = [37, 35]"] ;
442 -> 696 ;
697 [label="gini = 0.0\nsamples = 4\nvalue = [4, 0]"] ;
696 -> 697 ;
698 [label="html_ratio <= 0.182\ngini = 0.5\nsamples = 68\nvalue = [33, 35]"] ;
696 -> 698 ;
699 [label="gini = 0.0\nsamples = 3\nvalue = [0, 3]"] ;
698 -> 699 ;
700 [label="image_ratio <= 0.294\ngini = 0.5\nsamples = 65\nvalue = [33, 32]"] ;
698 -> 700 ;
701 [label="image_ratio <= 0.268\ngini = 0.466\nsamples = 27\nvalue = [17, 10]"] ;
700 -> 701 ;
702 [label="html_ratio <= 0.191\ngini = 0.463\nsamples = 11\nvalue = [4, 7]"] ;
701 -> 702 ;
703 [label="gini = 0.0\nsamples = 4\nvalue = [0, 4]"] ;
702 -> 703 ;
704 [label="html_ratio <= 0.196\ngini = 0.49\nsamples = 7\nvalue = [4, 3]"] ;
702 -> 704 ;
705 [label="gini = 0.0\nsamples = 3\nvalue = [3, 0]"] ;
704 -> 705 ;
706 [label="html_ratio <= 0.199\ngini = 0.375\nsamples = 4\nvalue = [1, 3]"] ;
704 -> 706 ;
707 [label="gini = 0.0\nsamples = 3\nvalue = [0, 3]"] ;
706 -> 707 ;
708 [label="gini = 0.0\nsamples = 1\nvalue = [1, 0]"] ;
706 -> 708 ;
709 [label="html_ratio <= 0.193\ngini = 0.305\nsamples = 16\nvalue = [13, 3]"] ;
701 -> 709 ;
710 [label="html_ratio <= 0.189\ngini = 0.444\nsamples = 9\nvalue = [6, 3]"] ;
709 -> 710 ;
711 [label="gini = 0.0\nsamples = 5\nvalue = [5, 0]"] ;
710 -> 711 ;
712 [label="image_ratio <= 0.29\ngini = 0.375\nsamples = 4\nvalue = [1, 3]"] ;
710 -> 712 ;
713 [label="gini = 0.0\nsamples = 3\nvalue = [0, 3]"] ;
712 -> 713 ;
714 [label="gini = 0.0\nsamples = 1\nvalue = [1, 0]"] ;
712 -> 714 ;
715 [label="gini = 0.0\nsamples = 7\nvalue = [7, 0]"] ;
709 -> 715 ;
716 [label="image_ratio <= 0.342\ngini = 0.488\nsamples = 38\nvalue = [16, 22]"] ;
700 -> 716 ;
717 [label="html_ratio <= 0.194\ngini = 0.403\nsamples = 25\nvalue = [7, 18]"] ;
716 -> 717 ;
718 [label="image_ratio <= 0.309\ngini = 0.484\nsamples = 17\nvalue = [7, 10]"] ;
717 -> 718 ;
719 [label="gini = 0.0\nsamples = 3\nvalue = [0, 3]"] ;
718 -> 719 ;
720 [label="image_ratio <= 0.334\ngini = 0.5\nsamples = 14\nvalue = [7, 7]"] ;
718 -> 720 ;
721 [label="html_ratio <= 0.19\ngini = 0.486\nsamples = 12\nvalue = [7, 5]"] ;
720 -> 721 ;
722 [label="image_ratio <= 0.31\ngini = 0.494\nsamples = 9\nvalue = [4, 5]"] ;
721 -> 722 ;
723 [label="gini = 0.0\nsamples = 1\nvalue = [1, 0]"] ;
722 -> 723 ;
724 [label="image_ratio <= 0.32\ngini = 0.469\nsamples = 8\nvalue = [3, 5]"] ;
722 -> 724 ;
725 [label="gini = 0.0\nsamples = 3\nvalue = [0, 3]"] ;
724 -> 725 ;
726 [label="image_ratio <= 0.325\ngini = 0.48\nsamples = 5\nvalue = [3, 2]"] ;
724 -> 726 ;
727 [label="gini = 0.0\nsamples = 2\nvalue = [2, 0]"] ;
726 -> 727 ;
728 [label="image_ratio <= 0.326\ngini = 0.444\nsamples = 3\nvalue = [1, 2]"] ;
726 -> 728 ;
729 [label="gini = 0.0\nsamples = 1\nvalue = [0, 1]"] ;
728 -> 729 ;
730 [label="html_ratio <= 0.188\ngini = 0.5\nsamples = 2\nvalue = [1, 1]"] ;
728 -> 730 ;
731 [label="gini = 0.0\nsamples = 1\nvalue = [1, 0]"] ;
730 -> 731 ;
732 [label="gini = 0.0\nsamples = 1\nvalue = [0, 1]"] ;
730 -> 732 ;
733 [label="gini = 0.0\nsamples = 3\nvalue = [3, 0]"] ;
721 -> 733 ;
734 [label="gini = 0.0\nsamples = 2\nvalue = [0, 2]"] ;
720 -> 734 ;
735 [label="gini = 0.0\nsamples = 8\nvalue = [0, 8]"] ;
717 -> 735 ;
736 [label="image_ratio <= 0.355\ngini = 0.426\nsamples = 13\nvalue = [9, 4]"] ;
716 -> 736 ;
737 [label="gini = 0.0\nsamples = 5\nvalue = [5, 0]"] ;
736 -> 737 ;
738 [label="html_ratio <= 0.187\ngini = 0.5\nsamples = 8\nvalue = [4, 4]"] ;
736 -> 738 ;
739 [label="gini = 0.0\nsamples = 2\nvalue = [2, 0]"] ;
738 -> 739 ;
740 [label="html_ratio <= 0.189\ngini = 0.444\nsamples = 6\nvalue = [2, 4]"] ;
738 -> 740 ;
741 [label="gini = 0.0\nsamples = 2\nvalue = [0, 2]"] ;
740 -> 741 ;
742 [label="html_ratio <= 0.192\ngini = 0.5\nsamples = 4\nvalue = [2, 2]"] ;
740 -> 742 ;
743 [label="gini = 0.0\nsamples = 2\nvalue = [2, 0]"] ;
742 -> 743 ;
744 [label="gini = 0.0\nsamples = 2\nvalue = [0, 2]"] ;
742 -> 744 ;
745 [label="gini = 0.0\nsamples = 6\nvalue = [0, 6]"] ;
441 -> 745 ;
746 [label="gini = 0.0\nsamples = 8\nvalue = [0, 8]"] ;
440 -> 746 ;
747 [label="image_ratio <= 0.154\ngini = 0.5\nsamples = 3220\nvalue = [1657, 1563]"] ;
101 -> 747 ;
748 [label="image_ratio <= 0.006\ngini = 0.5\nsamples = 2529\nvalue = [1254, 1275]"] ;
747 -> 748 ;
749 [label="image_ratio <= 0.004\ngini = 0.488\nsamples = 371\nvalue = [214, 157]"] ;
748 -> 749 ;
750 [label="html_ratio <= 0.267\ngini = 0.492\nsamples = 349\nvalue = [196, 153]"] ;
749 -> 750 ;
751 [label="image_ratio <= 0.001\ngini = 0.487\nsamples = 320\nvalue = [186, 134]"] ;
750 -> 751 ;
752 [label="html_ratio <= 0.259\ngini = 0.483\nsamples = 306\nvalue = [181, 125]"] ;
751 -> 752 ;
753 [label="html_ratio <= 0.256\ngini = 0.489\nsamples = 268\nvalue = [154, 114]"] ;
752 -> 753 ;
754 [label="html_ratio <= 0.249\ngini = 0.481\nsamples = 253\nvalue = [151, 102]"] ;
753 -> 754 ;
755 [label="html_ratio <= 0.237\ngini = 0.488\nsamples = 217\nvalue = [125, 92]"] ;
754 -> 755 ;
756 [label="html_ratio <= 0.228\ngini = 0.471\nsamples = 153\nvalue = [95, 58]"] ;
755 -> 756 ;
757 [label="html_ratio <= 0.219\ngini = 0.495\nsamples = 109\nvalue = [60, 49]"] ;
756 -> 757 ;
758 [label="html_ratio <= 0.215\ngini = 0.471\nsamples = 71\nvalue = [44, 27]"] ;
757 -> 758 ;
759 [label="html_ratio <= 0.208\ngini = 0.492\nsamples = 55\nvalue = [31, 24]"] ;
758 -> 759 ;
760 [label="html_ratio <= 0.206\ngini = 0.444\nsamples = 33\nvalue = [22, 11]"] ;
759 -> 760 ;
761 [label="html_ratio <= 0.206\ngini = 0.488\nsamples = 26\nvalue = [15, 11]"] ;
760 -> 761 ;
762 [label="html_ratio <= 0.205\ngini = 0.469\nsamples = 24\nvalue = [15, 9]"] ;
761 -> 762 ;
763 [label="html_ratio <= 0.204\ngini = 0.49\nsamples = 21\nvalue = [12, 9]"] ;
762 -> 763 ;
764 [label="html_ratio <= 0.204\ngini = 0.444\nsamples = 15\nvalue = [10, 5]"] ;
763 -> 764 ;
765 [label="html_ratio <= 0.202\ngini = 0.486\nsamples = 12\nvalue = [7, 5]"] ;
764 -> 765 ;
766 [label="html_ratio <= 0.202\ngini = 0.32\nsamples = 5\nvalue = [4, 1]"] ;
765 -> 766 ;
767 [label="html_ratio <= 0.202\ngini = 0.5\nsamples = 2\nvalue = [1, 1]"] ;
766 -> 767 ;
768 [label="gini = 0.0\nsamples = 1\nvalue = [1, 0]"] ;
767 -> 768 ;
769 [label="gini = 0.0\nsamples = 1\nvalue = [0, 1]"] ;
767 -> 769 ;
770 [label="gini = 0.0\nsamples = 3\nvalue = [3, 0]"] ;
766 -> 770 ;
771 [label="html_ratio <= 0.203\ngini = 0.49\nsamples = 7\nvalue = [3, 4]"] ;
765 -> 771 ;
772 [label="gini = 0.0\nsamples = 1\nvalue = [0, 1]"] ;
771 -> 772 ;
773 [label="html_ratio <= 0.203\ngini = 0.5\nsamples = 6\nvalue = [3, 3]"] ;
771 -> 773 ;
774 [label="gini = 0.0\nsamples = 1\nvalue = [1, 0]"] ;
773 -> 774 ;
775 [label="html_ratio <= 0.203\ngini = 0.48\nsamples = 5\nvalue = [2, 3]"] ;
773 -> 775 ;
776 [label="gini = 0.0\nsamples = 1\nvalue = [0, 1]"] ;
775 -> 776 ;
777 [label="html_ratio <= 0.203\ngini = 0.5\nsamples = 4\nvalue = [2, 2]"] ;
775 -> 777 ;
778 [label="gini = 0.0\nsamples = 1\nvalue = [1, 0]"] ;
777 -> 778 ;
779 [label="html_ratio <= 0.203\ngini = 0.444\nsamples = 3\nvalue = [1, 2]"] ;
777 -> 779 ;
780 [label="gini = 0.0\nsamples = 1\nvalue = [0, 1]"] ;
779 -> 780 ;
781 [label="html_ratio <= 0.204\ngini = 0.5\nsamples = 2\nvalue = [1, 1]"] ;
779 -> 781 ;
782 [label="gini = 0.0\nsamples = 1\nvalue = [1, 0]"] ;
781 -> 782 ;
783 [label="gini = 0.0\nsamples = 1\nvalue = [0, 1]"] ;
781 -> 783 ;
784 [label="gini = 0.0\nsamples = 3\nvalue = [3, 0]"] ;
764 -> 784 ;
785 [label="html_ratio <= 0.204\ngini = 0.444\nsamples = 6\nvalue = [2, 4]"] ;
763 -> 785 ;
786 [label="gini = 0.0\nsamples = 3\nvalue = [0, 3]"] ;
785 -> 786 ;
787 [label="html_ratio <= 0.205\ngini = 0.444\nsamples = 3\nvalue = [2, 1]"] ;
785 -> 787 ;
788 [label="gini = 0.0\nsamples = 2\nvalue = [2, 0]"] ;
787 -> 788 ;
789 [label="gini = 0.0\nsamples = 1\nvalue = [0, 1]"] ;
787 -> 789 ;
790 [label="gini = 0.0\nsamples = 3\nvalue = [3, 0]"] ;
762 -> 790 ;
791 [label="gini = 0.0\nsamples = 2\nvalue = [0, 2]"] ;
761 -> 791 ;
792 [label="gini = 0.0\nsamples = 7\nvalue = [7, 0]"] ;
760 -> 792 ;
793 [label="html_ratio <= 0.211\ngini = 0.483\nsamples = 22\nvalue = [9, 13]"] ;
759 -> 793 ;
794 [label="gini = 0.0\nsamples = 6\nvalue = [0, 6]"] ;
793 -> 794 ;
795 [label="html_ratio <= 0.215\ngini = 0.492\nsamples = 16\nvalue = [9, 7]"] ;
793 -> 795 ;
796 [label="html_ratio <= 0.212\ngini = 0.459\nsamples = 14\nvalue = [9, 5]"] ;
795 -> 796 ;
797 [label="html_ratio <= 0.211\ngini = 0.48\nsamples = 5\nvalue = [2, 3]"] ;
796 -> 797 ;
798 [label="gini = 0.0\nsamples = 1\nvalue = [1, 0]"] ;
797 -> 798 ;
799 [label="html_ratio <= 0.212\ngini = 0.375\nsamples = 4\nvalue = [1, 3]"] ;
797 -> 799 ;
800 [label="gini = 0.0\nsamples = 2\nvalue = [0, 2]"] ;
799 -> 800 ;
801 [label="html_ratio <= 0.212\ngini = 0.5\nsamples = 2\nvalue = [1, 1]"] ;
799 -> 801 ;
802 [label="gini = 0.0\nsamples = 1\nvalue = [1, 0]"] ;
801 -> 802 ;
803 [label="gini = 0.0\nsamples = 1\nvalue = [0, 1]"] ;
801 -> 803 ;
804 [label="html_ratio <= 0.214\ngini = 0.346\nsamples = 9\nvalue = [7, 2]"] ;
796 -> 804 ;
805 [label="gini = 0.0\nsamples = 3\nvalue = [3, 0]"] ;
804 -> 805 ;
806 [label="html_ratio <= 0.214\ngini = 0.444\nsamples = 6\nvalue = [4, 2]"] ;
804 -> 806 ;
807 [label="gini = 0.0\nsamples = 1\nvalue = [0, 1]"] ;
806 -> 807 ;
808 [label="html_ratio <= 0.214\ngini = 0.32\nsamples = 5\nvalue = [4, 1]"] ;
806 -> 808 ;
809 [label="gini = 0.0\nsamples = 2\nvalue = [2, 0]"] ;
808 -> 809 ;
810 [label="html_ratio <= 0.214\ngini = 0.444\nsamples = 3\nvalue = [2, 1]"] ;
808 -> 810 ;
811 [label="gini = 0.0\nsamples = 1\nvalue = [0, 1]"] ;
810 -> 811 ;
812 [label="gini = 0.0\nsamples = 2\nvalue = [2, 0]"] ;
810 -> 812 ;
813 [label="gini = 0.0\nsamples = 2\nvalue = [0, 2]"] ;
795 -> 813 ;
814 [label="html_ratio <= 0.218\ngini = 0.305\nsamples = 16\nvalue = [13, 3]"] ;
758 -> 814 ;
815 [label="html_ratio <= 0.217\ngini = 0.165\nsamples = 11\nvalue = [10, 1]"] ;
814 -> 815 ;
816 [label="gini = 0.0\nsamples = 5\nvalue = [5, 0]"] ;
815 -> 816 ;
817 [label="html_ratio <= 0.217\ngini = 0.278\nsamples = 6\nvalue = [5, 1]"] ;
815 -> 817 ;
818 [label="gini = 0.0\nsamples = 1\nvalue = [0, 1]"] ;
817 -> 818 ;
819 [label="gini = 0.0\nsamples = 5\nvalue = [5, 0]"] ;
817 -> 819 ;
820 [label="html_ratio <= 0.219\ngini = 0.48\nsamples = 5\nvalue = [3, 2]"] ;
814 -> 820 ;
821 [label="html_ratio <= 0.219\ngini = 0.444\nsamples = 3\nvalue = [1, 2]"] ;
820 -> 821 ;
822 [label="gini = 0.0\nsamples = 1\nvalue = [0, 1]"] ;
821 -> 822 ;
823 [label="html_ratio <= 0.219\ngini = 0.5\nsamples = 2\nvalue = [1, 1]"] ;
821 -> 823 ;
824 [label="gini = 0.0\nsamples = 1\nvalue = [1, 0]"] ;
823 -> 824 ;
825 [label="gini = 0.0\nsamples = 1\nvalue = [0, 1]"] ;
823 -> 825 ;
826 [label="gini = 0.0\nsamples = 2\nvalue = [2, 0]"] ;
820 -> 826 ;
827 [label="html_ratio <= 0.222\ngini = 0.488\nsamples = 38\nvalue = [16, 22]"] ;
757 -> 827 ;
828 [label="html_ratio <= 0.221\ngini = 0.198\nsamples = 9\nvalue = [1, 8]"] ;
827 -> 828 ;
829 [label="gini = 0.0\nsamples = 5\nvalue = [0, 5]"] ;
828 -> 829 ;
830 [label="html_ratio <= 0.221\ngini = 0.375\nsamples = 4\nvalue = [1, 3]"] ;
828 -> 830 ;
831 [label="gini = 0.0\nsamples = 1\nvalue = [1, 0]"] ;
830 -> 831 ;
832 [label="gini = 0.0\nsamples = 3\nvalue = [0, 3]"] ;
830 -> 832 ;
833 [label="html_ratio <= 0.228\ngini = 0.499\nsamples = 29\nvalue = [15, 14]"] ;
827 -> 833 ;
834 [label="html_ratio <= 0.223\ngini = 0.494\nsamples = 27\nvalue = [15, 12]"] ;
833 -> 834 ;
835 [label="gini = 0.0\nsamples = 2\nvalue = [2, 0]"] ;
834 -> 835 ;
836 [label="html_ratio <= 0.224\ngini = 0.499\nsamples = 25\nvalue = [13, 12]"] ;
834 -> 836 ;
837 [label="gini = 0.0\nsamples = 3\nvalue = [0, 3]"] ;
836 -> 837 ;
838 [label="html_ratio <= 0.224\ngini = 0.483\nsamples = 22\nvalue = [13, 9]"] ;
836 -> 838 ;
839 [label="gini = 0.0\nsamples = 2\nvalue = [2, 0]"] ;
838 -> 839 ;
840 [label="html_ratio <= 0.224\ngini = 0.495\nsamples = 20\nvalue = [11, 9]"] ;
838 -> 840 ;
841 [label="gini = 0.0\nsamples = 2\nvalue = [0, 2]"] ;
840 -> 841 ;
842 [label="html_ratio <= 0.226\ngini = 0.475\nsamples = 18\nvalue = [11, 7]"] ;
840 -> 842 ;
843 [label="html_ratio <= 0.225\ngini = 0.497\nsamples = 13\nvalue = [7, 6]"] ;
842 -> 843 ;
844 [label="html_ratio <= 0.225\ngini = 0.408\nsamples = 7\nvalue = [5, 2]"] ;
843 -> 844 ;
845 [label="html_ratio <= 0.224\ngini = 0.5\nsamples = 4\nvalue = [2, 2]"] ;
844 -> 845 ;
846 [label="gini = 0.0\nsamples = 1\nvalue = [1, 0]"] ;
845 -> 846 ;
847 [label="html_ratio <= 0.225\ngini = 0.444\nsamples = 3\nvalue = [1, 2]"] ;
845 -> 847 ;
848 [label="gini = 0.0\nsamples = 1\nvalue = [0, 1]"] ;
847 -> 848 ;
849 [label="html_ratio <= 0.225\ngini = 0.5\nsamples = 2\nvalue = [1, 1]"] ;
847 -> 849 ;
850 [label="gini = 0.0\nsamples = 1\nvalue = [1, 0]"] ;
849 -> 850 ;
851 [label="gini = 0.0\nsamples = 1\nvalue = [0, 1]"] ;
849 -> 851 ;
852 [label="gini = 0.0\nsamples = 3\nvalue = [3, 0]"] ;
844 -> 852 ;
853 [label="html_ratio <= 0.226\ngini = 0.444\nsamples = 6\nvalue = [2, 4]"] ;
843 -> 853 ;
854 [label="gini = 0.0\nsamples = 2\nvalue = [0, 2]"] ;
853 -> 854 ;
855 [label="html_ratio <= 0.226\ngini = 0.5\nsamples = 4\nvalue = [2, 2]"] ;
853 -> 855 ;
856 [label="gini = 0.0\nsamples = 1\nvalue = [1, 0]"] ;
855 -> 856 ;
857 [label="html_ratio <= 0.226\ngini = 0.444\nsamples = 3\nvalue = [1, 2]"] ;
855 -> 857 ;
858 [label="gini = 0.0\nsamples = 1\nvalue = [0, 1]"] ;
857 -> 858 ;
859 [label="html_ratio <= 0.226\ngini = 0.5\nsamples = 2\nvalue = [1, 1]"] ;
857 -> 859 ;
860 [label="gini = 0.0\nsamples = 1\nvalue = [1, 0]"] ;
859 -> 860 ;
861 [label="gini = 0.0\nsamples = 1\nvalue = [0, 1]"] ;
859 -> 861 ;
862 [label="html_ratio <= 0.227\ngini = 0.32\nsamples = 5\nvalue = [4, 1]"] ;
842 -> 862 ;
863 [label="gini = 0.0\nsamples = 3\nvalue = [3, 0]"] ;
862 -> 863 ;
864 [label="html_ratio <= 0.227\ngini = 0.5\nsamples = 2\nvalue = [1, 1]"] ;
862 -> 864 ;
865 [label="gini = 0.0\nsamples = 1\nvalue = [0, 1]"] ;
864 -> 865 ;
866 [label="gini = 0.0\nsamples = 1\nvalue = [1, 0]"] ;
864 -> 866 ;
867 [label="gini = 0.0\nsamples = 2\nvalue = [0, 2]"] ;
833 -> 867 ;
868 [label="html_ratio <= 0.234\ngini = 0.325\nsamples = 44\nvalue = [35, 9]"] ;
756 -> 868 ;
869 [label="html_ratio <= 0.232\ngini = 0.245\nsamples = 28\nvalue = [24, 4]"] ;
868 -> 869 ;
870 [label="html_ratio <= 0.231\ngini = 0.32\nsamples = 20\nvalue = [16, 4]"] ;
869 -> 870 ;
871 [label="html_ratio <= 0.23\ngini = 0.266\nsamples = 19\nvalue = [16, 3]"] ;
870 -> 871 ;
872 [label="html_ratio <= 0.229\ngini = 0.408\nsamples = 7\nvalue = [5, 2]"] ;
871 -> 872 ;
873 [label="gini = 0.0\nsamples = 4\nvalue = [4, 0]"] ;
872 -> 873 ;
874 [label="html_ratio <= 0.229\ngini = 0.444\nsamples = 3\nvalue = [1, 2]"] ;
872 -> 874 ;
875 [label="gini = 0.0\nsamples = 1\nvalue = [0, 1]"] ;
874 -> 875 ;
876 [label="html_ratio <= 0.23\ngini = 0.5\nsamples = 2\nvalue = [1, 1]"] ;
874 -> 876 ;
877 [label="gini = 0.0\nsamples = 1\nvalue = [1, 0]"] ;
876 -> 877 ;
878 [label="gini = 0.0\nsamples = 1\nvalue = [0, 1]"] ;
876 -> 878 ;
879 [label="html_ratio <= 0.23\ngini = 0.153\nsamples = 12\nvalue = [11, 1]"] ;
871 -> 879 ;
880 [label="gini = 0.0\nsamples = 9\nvalue = [9, 0]"] ;
879 -> 880 ;
881 [label="html_ratio <= 0.231\ngini = 0.444\nsamples = 3\nvalue = [2, 1]"] ;
879 -> 881 ;
882 [label="gini = 0.0\nsamples = 1\nvalue = [0, 1]"] ;
881 -> 882 ;
883 [label="gini = 0.0\nsamples = 2\nvalue = [2, 0]"] ;
881 -> 883 ;
884 [label="gini = 0.0\nsamples = 1\nvalue = [0, 1]"] ;
870 -> 884 ;
885 [label="gini = 0.0\nsamples = 8\nvalue = [8, 0]"] ;
869 -> 885 ;
886 [label="html_ratio <= 0.235\ngini = 0.43\nsamples = 16\nvalue = [11, 5]"] ;
868 -> 886 ;
887 [label="html_ratio <= 0.234\ngini = 0.48\nsamples = 5\nvalue = [2, 3]"] ;
886 -> 887 ;
888 [label="gini = 0.0\nsamples = 1\nvalue = [0, 1]"] ;
887 -> 888 ;
889 [label="html_ratio <= 0.235\ngini = 0.5\nsamples = 4\nvalue = [2, 2]"] ;
887 -> 889 ;
890 [label="gini = 0.0\nsamples = 1\nvalue = [1, 0]"] ;
889 -> 890 ;
891 [label="html_ratio <= 0.235\ngini = 0.444\nsamples = 3\nvalue = [1, 2]"] ;
889 -> 891 ;
892 [label="gini = 0.0\nsamples = 1\nvalue = [0, 1]"] ;
891 -> 892 ;
893 [label="html_ratio <= 0.235\ngini = 0.5\nsamples = 2\nvalue = [1, 1]"] ;
891 -> 893 ;
894 [label="gini = 0.0\nsamples = 1\nvalue = [1, 0]"] ;
893 -> 894 ;
895 [label="gini = 0.0\nsamples = 1\nvalue = [0, 1]"] ;
893 -> 895 ;
896 [label="html_ratio <= 0.235\ngini = 0.298\nsamples = 11\nvalue = [9, 2]"] ;
886 -> 896 ;
897 [label="gini = 0.0\nsamples = 3\nvalue = [3, 0]"] ;
896 -> 897 ;
898 [label="html_ratio <= 0.235\ngini = 0.375\nsamples = 8\nvalue = [6, 2]"] ;
896 -> 898 ;
899 [label="gini = 0.0\nsamples = 1\nvalue = [0, 1]"] ;
898 -> 899 ;
900 [label="html_ratio <= 0.236\ngini = 0.245\nsamples = 7\nvalue = [6, 1]"] ;
898 -> 900 ;
901 [label="gini = 0.0\nsamples = 4\nvalue = [4, 0]"] ;
900 -> 901 ;
902 [label="html_ratio <= 0.236\ngini = 0.444\nsamples = 3\nvalue = [2, 1]"] ;
900 -> 902 ;
903 [label="gini = 0.0\nsamples = 1\nvalue = [0, 1]"] ;
902 -> 903 ;
904 [label="gini = 0.0\nsamples = 2\nvalue = [2, 0]"] ;
902 -> 904 ;
905 [label="html_ratio <= 0.242\ngini = 0.498\nsamples = 64\nvalue = [30, 34]"] ;
755 -> 905 ;
906 [label="html_ratio <= 0.241\ngini = 0.459\nsamples = 28\nvalue = [10, 18]"] ;
905 -> 906 ;
907 [label="html_ratio <= 0.241\ngini = 0.495\nsamples = 20\nvalue = [9, 11]"] ;
906 -> 907 ;
908 [label="html_ratio <= 0.24\ngini = 0.475\nsamples = 18\nvalue = [7, 11]"] ;
907 -> 908 ;
909 [label="html_ratio <= 0.239\ngini = 0.498\nsamples = 15\nvalue = [7, 8]"] ;
908 -> 909 ;
910 [label="html_ratio <= 0.238\ngini = 0.444\nsamples = 9\nvalue = [3, 6]"] ;
909 -> 910 ;
911 [label="html_ratio <= 0.237\ngini = 0.5\nsamples = 6\nvalue = [3, 3]"] ;
910 -> 911 ;
912 [label="gini = 0.0\nsamples = 1\nvalue = [0, 1]"] ;
911 -> 912 ;
913 [label="html_ratio <= 0.237\ngini = 0.48\nsamples = 5\nvalue = [3, 2]"] ;
911 -> 913 ;
914 [label="gini = 0.0\nsamples = 1\nvalue = [1, 0]"] ;
913 -> 914 ;
915 [label="html_ratio <= 0.237\ngini = 0.5\nsamples = 4\nvalue = [2, 2]"] ;
913 -> 915 ;
916 [label="gini = 0.0\nsamples = 1\nvalue = [0, 1]"] ;
915 -> 916 ;
917 [label="html_ratio <= 0.237\ngini = 0.444\nsamples = 3\nvalue = [2, 1]"] ;
915 -> 917 ;
918 [label="gini = 0.0\nsamples = 1\nvalue = [1, 0]"] ;
917 -> 918 ;
919 [label="html_ratio <= 0.238\ngini = 0.5\nsamples = 2\nvalue = [1, 1]"] ;
917 -> 919 ;
920 [label="gini = 0.0\nsamples = 1\nvalue = [0, 1]"] ;
919 -> 920 ;
921 [label="gini = 0.0\nsamples = 1\nvalue = [1, 0]"] ;
919 -> 921 ;
922 [label="gini = 0.0\nsamples = 3\nvalue = [0, 3]"] ;
910 -> 922 ;
923 [label="html_ratio <= 0.24\ngini = 0.444\nsamples = 6\nvalue = [4, 2]"] ;
909 -> 923 ;
924 [label="gini = 0.0\nsamples = 3\nvalue = [3, 0]"] ;
923 -> 924 ;
925 [label="html_ratio <= 0.24\ngini = 0.444\nsamples = 3\nvalue = [1, 2]"] ;
923 -> 925 ;
926 [label="gini = 0.0\nsamples = 2\nvalue = [0, 2]"] ;
925 -> 926 ;
927 [label="gini = 0.0\nsamples = 1\nvalue = [1, 0]"] ;
925 -> 927 ;
928 [label="gini = 0.0\nsamples = 3\nvalue = [0, 3]"] ;
908 -> 928 ;
929 [label="gini = 0.0\nsamples = 2\nvalue = [2, 0]"] ;
907 -> 929 ;
930 [label="html_ratio <= 0.242\ngini = 0.219\nsamples = 8\nvalue = [1, 7]"] ;
906 -> 930 ;
931 [label="gini = 0.0\nsamples = 5\nvalue = [0, 5]"] ;
930 -> 931 ;
932 [label="html_ratio <= 0.242\ngini = 0.444\nsamples = 3\nvalue = [1, 2]"] ;
930 -> 932 ;
933 [label="gini = 0.0\nsamples = 1\nvalue = [1, 0]"] ;
932 -> 933 ;
934 [label="gini = 0.0\nsamples = 2\nvalue = [0, 2]"] ;
932 -> 934 ;
935 [label="image_ratio <= -0.5\ngini = 0.494\nsamples = 36\nvalue = [20, 16]"] ;
905 -> 935 ;
936 [label="html_ratio <= 0.248\ngini = 0.484\nsamples = 34\nvalue = [20, 14]"] ;
935 -> 936 ;
937 [label="html_ratio <= 0.248\ngini = 0.469\nsamples = 32\nvalue = [20, 12]"] ;
936 -> 937 ;
938 [label="html_ratio <= 0.247\ngini = 0.48\nsamples = 30\nvalue = [18, 12]"] ;
937 -> 938 ;
939 [label="html_ratio <= 0.246\ngini = 0.471\nsamples = 29\nvalue = [18, 11]"] ;
938 -> 939 ;
940 [label="html_ratio <= 0.246\ngini = 0.491\nsamples = 23\nvalue = [13, 10]"] ;
939 -> 940 ;
941 [label="html_ratio <= 0.245\ngini = 0.455\nsamples = 20\nvalue = [13, 7]"] ;
940 -> 941 ;
942 [label="html_ratio <= 0.245\ngini = 0.492\nsamples = 16\nvalue = [9, 7]"] ;
941 -> 942 ;
943 [label="html_ratio <= 0.245\ngini = 0.48\nsamples = 15\nvalue = [9, 6]"] ;
942 -> 943 ;
944 [label="html_ratio <= 0.244\ngini = 0.497\nsamples = 13\nvalue = [7, 6]"] ;
943 -> 944 ;
945 [label="html_ratio <= 0.243\ngini = 0.444\nsamples = 9\nvalue = [6, 3]"] ;
944 -> 945 ;
946 [label="html_ratio <= 0.243\ngini = 0.5\nsamples = 6\nvalue = [3, 3]"] ;
945 -> 946 ;
947 [label="gini = 0.0\nsamples = 1\nvalue = [1, 0]"] ;
946 -> 947 ;
948 [label="html_ratio <= 0.243\ngini = 0.48\nsamples = 5\nvalue = [2, 3]"] ;
946 -> 948 ;
949 [label="gini = 0.0\nsamples = 1\nvalue = [0, 1]"] ;
948 -> 949 ;
950 [label="html_ratio <= 0.243\ngini = 0.5\nsamples = 4\nvalue = [2, 2]"] ;
948 -> 950 ;
951 [label="gini = 0.0\nsamples = 1\nvalue = [1, 0]"] ;
950 -> 951 ;
952 [label="html_ratio <= 0.243\ngini = 0.444\nsamples = 3\nvalue = [1, 2]"] ;
950 -> 952 ;
953 [label="gini = 0.0\nsamples = 1\nvalue = [0, 1]"] ;
952 -> 953 ;
954 [label="html_ratio <= 0.243\ngini = 0.5\nsamples = 2\nvalue = [1, 1]"] ;
952 -> 954 ;
955 [label="gini = 0.0\nsamples = 1\nvalue = [1, 0]"] ;
954 -> 955 ;
956 [label="gini = 0.0\nsamples = 1\nvalue = [0, 1]"] ;
954 -> 956 ;
957 [label="gini = 0.0\nsamples = 3\nvalue = [3, 0]"] ;
945 -> 957 ;
958 [label="html_ratio <= 0.244\ngini = 0.375\nsamples = 4\nvalue = [1, 3]"] ;
944 -> 958 ;
959 [label="gini = 0.0\nsamples = 2\nvalue = [0, 2]"] ;
958 -> 959 ;
960 [label="html_ratio <= 0.244\ngini = 0.5\nsamples = 2\nvalue = [1, 1]"] ;
958 -> 960 ;
961 [label="gini = 0.0\nsamples = 1\nvalue = [1, 0]"] ;
960 -> 961 ;
962 [label="gini = 0.0\nsamples = 1\nvalue = [0, 1]"] ;
960 -> 962 ;
963 [label="gini = 0.0\nsamples = 2\nvalue = [2, 0]"] ;
943 -> 963 ;
964 [label="gini = 0.0\nsamples = 1\nvalue = [0, 1]"] ;
942 -> 964 ;
965 [label="gini = 0.0\nsamples = 4\nvalue = [4, 0]"] ;
941 -> 965 ;
966 [label="gini = 0.0\nsamples = 3\nvalue = [0, 3]"] ;
940 -> 966 ;
967 [label="html_ratio <= 0.247\ngini = 0.278\nsamples = 6\nvalue = [5, 1]"] ;
939 -> 967 ;
968 [label="gini = 0.0\nsamples = 3\nvalue = [3, 0]"] ;
967 -> 968 ;
969 [label="html_ratio <= 0.247\ngini = 0.444\nsamples = 3\nvalue = [2, 1]"] ;
967 -> 969 ;
970 [label="gini = 0.0\nsamples = 1\nvalue = [0, 1]"] ;
969 -> 970 ;
971 [label="gini = 0.0\nsamples = 2\nvalue = [2, 0]"] ;
969 -> 971 ;
972 [label="gini = 0.0\nsamples = 1\nvalue = [0, 1]"] ;
938 -> 972 ;
973 [label="gini = 0.0\nsamples = 2\nvalue = [2, 0]"] ;
937 -> 973 ;
974 [label="gini = 0.0\nsamples = 2\nvalue = [0, 2]"] ;
936 -> 974 ;
975 [label="gini = 0.0\nsamples = 2\nvalue = [0, 2]"] ;
935 -> 975 ;
976 [label="html_ratio <= 0.251\ngini = 0.401\nsamples = 36\nvalue = [26, 10]"] ;
754 -> 976 ;
977 [label="html_ratio <= 0.25\ngini = 0.153\nsamples = 12\nvalue = [11, 1]"] ;
976 -> 977 ;
978 [label="gini = 0.0\nsamples = 6\nvalue = [6, 0]"] ;
977 -> 978 ;
979 [label="html_ratio <= 0.251\ngini = 0.278\nsamples = 6\nvalue = [5, 1]"] ;
977 -> 979 ;
980 [label="gini = 0.0\nsamples = 1\nvalue = [0, 1]"] ;
979 -> 980 ;
981 [label="gini = 0.0\nsamples = 5\nvalue = [5, 0]"] ;
979 -> 981 ;
982 [label="html_ratio <= 0.252\ngini = 0.469\nsamples = 24\nvalue = [15, 9]"] ;
976 -> 982 ;
983 [label="gini = 0.0\nsamples = 3\nvalue = [0, 3]"] ;
982 -> 983 ;
984 [label="html_ratio <= 0.252\ngini = 0.408\nsamples = 21\nvalue = [15, 6]"] ;
982 -> 984 ;
985 [label="gini = 0.0\nsamples = 3\nvalue = [3, 0]"] ;
984 -> 985 ;
986 [label="html_ratio <= 0.254\ngini = 0.444\nsamples = 18\nvalue = [12, 6]"] ;
984 -> 986 ;
987 [label="html_ratio <= 0.253\ngini = 0.49\nsamples = 7\nvalue = [3, 4]"] ;
986 -> 987 ;
988 [label="html_ratio <= 0.253\ngini = 0.48\nsamples = 5\nvalue = [3, 2]"] ;
987 -> 988 ;
989 [label="html_ratio <= 0.253\ngini = 0.444\nsamples = 3\nvalue = [1, 2]"] ;
988 -> 989 ;
990 [label="gini = 0.0\nsamples = 1\nvalue = [0, 1]"] ;
989 -> 990 ;
991 [label="html_ratio <= 0.253\ngini = 0.5\nsamples = 2\nvalue = [1, 1]"] ;
989 -> 991 ;
992 [label="gini = 0.0\nsamples = 1\nvalue = [1, 0]"] ;
991 -> 992 ;
993 [label="gini = 0.0\nsamples = 1\nvalue = [0, 1]"] ;
991 -> 993 ;
994 [label="gini = 0.0\nsamples = 2\nvalue = [2, 0]"] ;
988 -> 994 ;
995 [label="gini = 0.0\nsamples = 2\nvalue = [0, 2]"] ;
987 -> 995 ;
996 [label="html_ratio <= 0.255\ngini = 0.298\nsamples = 11\nvalue = [9, 2]"] ;
986 -> 996 ;
997 [label="gini = 0.0\nsamples = 4\nvalue = [4, 0]"] ;
996 -> 997 ;
998 [label="html_ratio <= 0.255\ngini = 0.408\nsamples = 7\nvalue = [5, 2]"] ;
996 -> 998 ;
999 [label="gini = 0.0\nsamples = 1\nvalue = [0, 1]"] ;
998 -> 999 ;
1000 [label="html_ratio <= 0.256\ngini = 0.278\nsamples = 6\nvalue = [5, 1]"] ;
998 -> 1000 ;
1001 [label="html_ratio <= 0.255\ngini = 0.444\nsamples = 3\nvalue = [2, 1]"] ;
1000 -> 1001 ;
1002 [label="gini = 0.0\nsamples = 2\nvalue = [2, 0]"] ;
1001 -> 1002 ;
1003 [label="gini = 0.0\nsamples = 1\nvalue = [0, 1]"] ;
1001 -> 1003 ;
1004 [label="gini = 0.0\nsamples = 3\nvalue = [3, 0]"] ;
1000 -> 1004 ;
1005 [label="html_ratio <= 0.258\ngini = 0.32\nsamples = 15\nvalue = [3, 12]"] ;
753 -> 1005 ;
1006 [label="html_ratio <= 0.258\ngini = 0.42\nsamples = 10\nvalue = [3, 7]"] ;
1005 -> 1006 ;
1007 [label="html_ratio <= 0.257\ngini = 0.245\nsamples = 7\nvalue = [1, 6]"] ;
1006 -> 1007 ;
1008 [label="gini = 0.0\nsamples = 3\nvalue = [0, 3]"] ;
1007 -> 1008 ;
1009 [label="html_ratio <= 0.257\ngini = 0.375\nsamples = 4\nvalue = [1, 3]"] ;
1007 -> 1009 ;
1010 [label="gini = 0.0\nsamples = 1\nvalue = [1, 0]"] ;
1009 -> 1010 ;
1011 [label="gini = 0.0\nsamples = 3\nvalue = [0, 3]"] ;
1009 -> 1011 ;
1012 [label="html_ratio <= 0.258\ngini = 0.444\nsamples = 3\nvalue = [2, 1]"] ;
1006 -> 1012 ;
1013 [label="gini = 0.0\nsamples = 1\nvalue = [1, 0]"] ;
1012 -> 1013 ;
1014 [label="html_ratio <= 0.258\ngini = 0.5\nsamples = 2\nvalue = [1, 1]"] ;
1012 -> 1014 ;
1015 [label="gini = 0.0\nsamples = 1\nvalue = [0, 1]"] ;
1014 -> 1015 ;
1016 [label="gini = 0.0\nsamples = 1\nvalue = [1, 0]"] ;
1014 -> 1016 ;
1017 [label="gini = 0.0\nsamples = 5\nvalue = [0, 5]"] ;
1005 -> 1017 ;
1018 [label="html_ratio <= 0.266\ngini = 0.411\nsamples = 38\nvalue = [27, 11]"] ;
752 -> 1018 ;
1019 [label="html_ratio <= 0.259\ngini = 0.346\nsamples = 27\nvalue = [21, 6]"] ;
1018 -> 1019 ;
1020 [label="gini = 0.0\nsamples = 4\nvalue = [4, 0]"] ;
1019 -> 1020 ;
1021 [label="html_ratio <= 0.26\ngini = 0.386\nsamples = 23\nvalue = [17, 6]"] ;
1019 -> 1021 ;
1022 [label="gini = 0.0\nsamples = 2\nvalue = [0, 2]"] ;
1021 -> 1022 ;
1023 [label="html_ratio <= 0.263\ngini = 0.308\nsamples = 21\nvalue = [17, 4]"] ;
1021 -> 1023 ;
1024 [label="html_ratio <= 0.261\ngini = 0.18\nsamples = 10\nvalue = [9, 1]"] ;
1023 -> 1024 ;
1025 [label="html_ratio <= 0.261\ngini = 0.375\nsamples = 4\nvalue = [3, 1]"] ;
1024 -> 1025 ;
1026 [label="gini = 0.0\nsamples = 3\nvalue = [3, 0]"] ;
1025 -> 1026 ;
1027 [label="gini = 0.0\nsamples = 1\nvalue = [0, 1]"] ;
1025 -> 1027 ;
1028 [label="gini = 0.0\nsamples = 6\nvalue = [6, 0]"] ;
1024 -> 1028 ;
1029 [label="html_ratio <= 0.263\ngini = 0.397\nsamples = 11\nvalue = [8, 3]"] ;
1023 -> 1029 ;
1030 [label="gini = 0.0\nsamples = 1\nvalue = [0, 1]"] ;
1029 -> 1030 ;
1031 [label="html_ratio <= 0.265\ngini = 0.32\nsamples = 10\nvalue = [8, 2]"] ;
1029 -> 1031 ;
1032 [label="html_ratio <= 0.265\ngini = 0.408\nsamples = 7\nvalue = [5, 2]"] ;
1031 -> 1032 ;
1033 [label="html_ratio <= 0.264\ngini = 0.278\nsamples = 6\nvalue = [5, 1]"] ;
1032 -> 1033 ;
1034 [label="html_ratio <= 0.263\ngini = 0.444\nsamples = 3\nvalue = [2, 1]"] ;
1033 -> 1034 ;
1035 [label="gini = 0.0\nsamples = 2\nvalue = [2, 0]"] ;
1034 -> 1035 ;
1036 [label="gini = 0.0\nsamples = 1\nvalue = [0, 1]"] ;
1034 -> 1036 ;
1037 [label="gini = 0.0\nsamples = 3\nvalue = [3, 0]"] ;
1033 -> 1037 ;
1038 [label="gini = 0.0\nsamples = 1\nvalue = [0, 1]"] ;
1032 -> 1038 ;
1039 [label="gini = 0.0\nsamples = 3\nvalue = [3, 0]"] ;
1031 -> 1039 ;
1040 [label="html_ratio <= 0.266\ngini = 0.496\nsamples = 11\nvalue = [6, 5]"] ;
1018 -> 1040 ;
1041 [label="gini = 0.0\nsamples = 2\nvalue = [0, 2]"] ;
1040 -> 1041 ;
1042 [label="html_ratio <= 0.266\ngini = 0.444\nsamples = 9\nvalue = [6, 3]"] ;
1040 -> 1042 ;
1043 [label="gini = 0.0\nsamples = 2\nvalue = [2, 0]"] ;
1042 -> 1043 ;
1044 [label="html_ratio <= 0.266\ngini = 0.49\nsamples = 7\nvalue = [4, 3]"] ;
1042 -> 1044 ;
1045 [label="gini = 0.0\nsamples = 1\nvalue = [0, 1]"] ;
1044 -> 1045 ;
1046 [label="html_ratio <= 0.266\ngini = 0.444\nsamples = 6\nvalue = [4, 2]"] ;
1044 -> 1046 ;
1047 [label="gini = 0.0\nsamples = 2\nvalue = [2, 0]"] ;
1046 -> 1047 ;
1048 [label="html_ratio <= 0.267\ngini = 0.5\nsamples = 4\nvalue = [2, 2]"] ;
1046 -> 1048 ;
1049 [label="gini = 0.0\nsamples = 1\nvalue = [0, 1]"] ;
1048 -> 1049 ;
1050 [label="html_ratio <= 0.267\ngini = 0.444\nsamples = 3\nvalue = [2, 1]"] ;
1048 -> 1050 ;
1051 [label="gini = 0.0\nsamples = 1\nvalue = [1, 0]"] ;
1050 -> 1051 ;
1052 [label="html_ratio <= 0.267\ngini = 0.5\nsamples = 2\nvalue = [1, 1]"] ;
1050 -> 1052 ;
1053 [label="gini = 0.0\nsamples = 1\nvalue = [0, 1]"] ;
1052 -> 1053 ;
1054 [label="gini = 0.0\nsamples = 1\nvalue = [1, 0]"] ;
1052 -> 1054 ;
1055 [label="html_ratio <= 0.219\ngini = 0.459\nsamples = 14\nvalue = [5, 9]"] ;
751 -> 1055 ;
1056 [label="gini = 0.0\nsamples = 2\nvalue = [2, 0]"] ;
1055 -> 1056 ;
1057 [label="image_ratio <= 0.003\ngini = 0.375\nsamples = 12\nvalue = [3, 9]"] ;
1055 -> 1057 ;
1058 [label="gini = 0.0\nsamples = 7\nvalue = [0, 7]"] ;
1057 -> 1058 ;
1059 [label="image_ratio <= 0.003\ngini = 0.48\nsamples = 5\nvalue = [3, 2]"] ;
1057 -> 1059 ;
1060 [label="image_ratio <= 0.003\ngini = 0.375\nsamples = 4\nvalue = [3, 1]"] ;
1059 -> 1060 ;
1061 [label="image_ratio <= 0.003\ngini = 0.5\nsamples = 2\nvalue = [1, 1]"] ;
1060 -> 1061 ;
1062 [label="gini = 0.0\nsamples = 1\nvalue = [1, 0]"] ;
1061 -> 1062 ;
1063 [label="gini = 0.0\nsamples = 1\nvalue = [0, 1]"] ;
1061 -> 1063 ;
1064 [label="gini = 0.0\nsamples = 2\nvalue = [2, 0]"] ;
1060 -> 1064 ;
1065 [label="gini = 0.0\nsamples = 1\nvalue = [0, 1]"] ;
1059 -> 1065 ;
1066 [label="html_ratio <= 0.27\ngini = 0.452\nsamples = 29\nvalue = [10, 19]"] ;
750 -> 1066 ;
1067 [label="html_ratio <= 0.269\ngini = 0.375\nsamples = 20\nvalue = [5, 15]"] ;
1066 -> 1067 ;
1068 [label="html_ratio <= 0.268\ngini = 0.459\nsamples = 14\nvalue = [5, 9]"] ;
1067 -> 1068 ;
1069 [label="html_ratio <= 0.268\ngini = 0.375\nsamples = 12\nvalue = [3, 9]"] ;
1068 -> 1069 ;
1070 [label="html_ratio <= 0.267\ngini = 0.49\nsamples = 7\nvalue = [3, 4]"] ;
1069 -> 1070 ;
1071 [label="html_ratio <= 0.267\ngini = 0.32\nsamples = 5\nvalue = [1, 4]"] ;
1070 -> 1071 ;
1072 [label="gini = 0.0\nsamples = 2\nvalue = [0, 2]"] ;
1071 -> 1072 ;
1073 [label="html_ratio <= 0.267\ngini = 0.444\nsamples = 3\nvalue = [1, 2]"] ;
1071 -> 1073 ;
1074 [label="gini = 0.0\nsamples = 1\nvalue = [1, 0]"] ;
1073 -> 1074 ;
1075 [label="gini = 0.0\nsamples = 2\nvalue = [0, 2]"] ;
1073 -> 1075 ;
1076 [label="gini = 0.0\nsamples = 2\nvalue = [2, 0]"] ;
1070 -> 1076 ;
1077 [label="gini = 0.0\nsamples = 5\nvalue = [0, 5]"] ;
1069 -> 1077 ;
1078 [label="gini = 0.0\nsamples = 2\nvalue = [2, 0]"] ;
1068 -> 1078 ;
1079 [label="gini = 0.0\nsamples = 6\nvalue = [0, 6]"] ;
1067 -> 1079 ;
1080 [label="html_ratio <= 0.27\ngini = 0.494\nsamples = 9\nvalue = [5, 4]"] ;
1066 -> 1080 ;
1081 [label="gini = 0.0\nsamples = 3\nvalue = [3, 0]"] ;
1080 -> 1081 ;
1082 [label="html_ratio <= 0.27\ngini = 0.444\nsamples = 6\nvalue = [2, 4]"] ;
1080 -> 1082 ;
1083 [label="html_ratio <= 0.27\ngini = 0.32\nsamples = 5\nvalue = [1, 4]"] ;
1082 -> 1083 ;
1084 [label="html_ratio <= 0.27\ngini = 0.5\nsamples = 2\nvalue = [1, 1]"] ;
1083 -> 1084 ;
1085 [label="gini = 0.0\nsamples = 1\nvalue = [0, 1]"] ;
1084 -> 1085 ;
1086 [label="gini = 0.0\nsamples = 1\nvalue = [1, 0]"] ;
1084 -> 1086 ;
1087 [label="gini = 0.0\nsamples = 3\nvalue = [0, 3]"] ;
1083 -> 1087 ;
1088 [label="gini = 0.0\nsamples = 1\nvalue = [1, 0]"] ;
1082 -> 1088 ;
1089 [label="image_ratio <= 0.005\ngini = 0.298\nsamples = 22\nvalue = [18, 4]"] ;
749 -> 1089 ;
1090 [label="gini = 0.0\nsamples = 10\nvalue = [10, 0]"] ;
1089 -> 1090 ;
1091 [label="image_ratio <= 0.005\ngini = 0.444\nsamples = 12\nvalue = [8, 4]"] ;
1089 -> 1091 ;
1092 [label="gini = 0.0\nsamples = 2\nvalue = [0, 2]"] ;
1091 -> 1092 ;
1093 [label="html_ratio <= 0.252\ngini = 0.32\nsamples = 10\nvalue = [8, 2]"] ;
1091 -> 1093 ;
1094 [label="image_ratio <= 0.005\ngini = 0.5\nsamples = 4\nvalue = [2, 2]"] ;
1093 -> 1094 ;
1095 [label="gini = 0.0\nsamples = 2\nvalue = [2, 0]"] ;
1094 -> 1095 ;
1096 [label="gini = 0.0\nsamples = 2\nvalue = [0, 2]"] ;
1094 -> 1096 ;
1097 [label="gini = 0.0\nsamples = 6\nvalue = [6, 0]"] ;
1093 -> 1097 ;
1098 [label="html_ratio <= 0.266\ngini = 0.499\nsamples = 2158\nvalue = [1040, 1118]"] ;
748 -> 1098 ;
1099 [label="image_ratio <= 0.045\ngini = 0.5\nsamples = 2023\nvalue = [985, 1038]"] ;
1098 -> 1099 ;
1100 [label="image_ratio <= 0.045\ngini = 0.499\nsamples = 773\nvalue = [403, 370]"] ;
1099 -> 1100 ;
1101 [label="html_ratio <= 0.206\ngini = 0.5\nsamples = 751\nvalue = [386, 365]"] ;
1100 -> 1101 ;
1102 [label="html_ratio <= 0.203\ngini = 0.388\nsamples = 19\nvalue = [14, 5]"] ;
1101 -> 1102 ;
1103 [label="html_ratio <= 0.202\ngini = 0.444\nsamples = 3\nvalue = [1, 2]"] ;
1102 -> 1103 ;
1104 [label="gini = 0.0\nsamples = 1\nvalue = [0, 1]"] ;
1103 -> 1104 ;
1105 [label="html_ratio <= 0.203\ngini = 0.5\nsamples = 2\nvalue = [1, 1]"] ;
1103 -> 1105 ;
1106 [label="gini = 0.0\nsamples = 1\nvalue = [1, 0]"] ;
1105 -> 1106 ;
1107 [label="gini = 0.0\nsamples = 1\nvalue = [0, 1]"] ;
1105 -> 1107 ;
1108 [label="image_ratio <= 0.037\ngini = 0.305\nsamples = 16\nvalue = [13, 3]"] ;
1102 -> 1108 ;
1109 [label="image_ratio <= 0.017\ngini = 0.165\nsamples = 11\nvalue = [10, 1]"] ;
1108 -> 1109 ;
1110 [label="image_ratio <= 0.015\ngini = 0.444\nsamples = 3\nvalue = [2, 1]"] ;
1109 -> 1110 ;
1111 [label="gini = 0.0\nsamples = 2\nvalue = [2, 0]"] ;
1110 -> 1111 ;
1112 [label="gini = 0.0\nsamples = 1\nvalue = [0, 1]"] ;
1110 -> 1112 ;
1113 [label="gini = 0.0\nsamples = 8\nvalue = [8, 0]"] ;
1109 -> 1113 ;
1114 [label="image_ratio <= 0.038\ngini = 0.48\nsamples = 5\nvalue = [3, 2]"] ;
1108 -> 1114 ;
1115 [label="gini = 0.0\nsamples = 1\nvalue = [0, 1]"] ;
1114 -> 1115 ;
1116 [label="image_ratio <= 0.04\ngini = 0.375\nsamples = 4\nvalue = [3, 1]"] ;
1114 -> 1116 ;
1117 [label="gini = 0.0\nsamples = 2\nvalue = [2, 0]"] ;
1116 -> 1117 ;
1118 [label="html_ratio <= 0.205\ngini = 0.5\nsamples = 2\nvalue = [1, 1]"] ;
1116 -> 1118 ;
1119 [label="gini = 0.0\nsamples = 1\nvalue = [0, 1]"] ;
1118 -> 1119 ;
1120 [label="gini = 0.0\nsamples = 1\nvalue = [1, 0]"] ;
1118 -> 1120 ;
1121 [label="html_ratio <= 0.266\ngini = 0.5\nsamples = 732\nvalue = [372, 360]"] ;
1101 -> 1121 ;
1122 [label="image_ratio <= 0.007\ngini = 0.5\nsamples = 728\nvalue = [368, 360]"] ;
1121 -> 1122 ;
1123 [label="image_ratio <= 0.007\ngini = 0.42\nsamples = 20\nvalue = [6, 14]"] ;
1122 -> 1123 ;
1124 [label="image_ratio <= 0.006\ngini = 0.497\nsamples = 13\nvalue = [6, 7]"] ;
1123 -> 1124 ;
1125 [label="image_ratio <= 0.006\ngini = 0.346\nsamples = 9\nvalue = [2, 7]"] ;
1124 -> 1125 ;
1126 [label="html_ratio <= 0.236\ngini = 0.444\nsamples = 3\nvalue = [2, 1]"] ;
1125 -> 1126 ;
1127 [label="gini = 0.0\nsamples = 1\nvalue = [0, 1]"] ;
1126 -> 1127 ;
1128 [label="gini = 0.0\nsamples = 2\nvalue = [2, 0]"] ;
1126 -> 1128 ;
1129 [label="gini = 0.0\nsamples = 6\nvalue = [0, 6]"] ;
1125 -> 1129 ;
1130 [label="gini = 0.0\nsamples = 4\nvalue = [4, 0]"] ;
1124 -> 1130 ;
1131 [label="gini = 0.0\nsamples = 7\nvalue = [0, 7]"] ;
1123 -> 1131 ;
1132 [label="image_ratio <= 0.045\ngini = 0.5\nsamples = 708\nvalue = [362, 346]"] ;
1122 -> 1132 ;
1133 [label="html_ratio <= 0.251\ngini = 0.5\nsamples = 705\nvalue = [362, 343]"] ;
1132 -> 1133 ;
1134 [label="html_ratio <= 0.249\ngini = 0.497\nsamples = 476\nvalue = [255, 221]"] ;
1133 -> 1134 ;
1135 [label="html_ratio <= 0.249\ngini = 0.499\nsamples = 450\nvalue = [236, 214]"] ;
1134 -> 1135 ;
1136 [label="html_ratio <= 0.248\ngini = 0.498\nsamples = 440\nvalue = [234, 206]"] ;
1135 -> 1136 ;
1137 [label="image_ratio <= 0.009\ngini = 0.499\nsamples = 419\nvalue = [218, 201]"] ;
1136 -> 1137 ;
1138 [label="html_ratio <= 0.225\ngini = 0.219\nsamples = 8\nvalue = [7, 1]"] ;
1137 -> 1138 ;
1139 [label="image_ratio <= 0.007\ngini = 0.444\nsamples = 3\nvalue = [2, 1]"] ;
1138 -> 1139 ;
1140 [label="gini = 0.0\nsamples = 2\nvalue = [2, 0]"] ;
1139 -> 1140 ;
1141 [label="gini = 0.0\nsamples = 1\nvalue = [0, 1]"] ;
1139 -> 1141 ;
1142 [label="gini = 0.0\nsamples = 5\nvalue = [5, 0]"] ;
1138 -> 1142 ;
1143 [label="image_ratio <= 0.037\ngini = 0.5\nsamples = 411\nvalue = [211, 200]"] ;
1137 -> 1143 ;
1144 [label="html_ratio <= 0.207\ngini = 0.5\nsamples = 329\nvalue = [161, 168]"] ;
1143 -> 1144 ;
1145 [label="html_ratio <= 0.206\ngini = 0.245\nsamples = 7\nvalue = [1, 6]"] ;
1144 -> 1145 ;
1146 [label="html_ratio <= 0.206\ngini = 0.444\nsamples = 3\nvalue = [1, 2]"] ;
1145 -> 1146 ;
1147 [label="gini = 0.0\nsamples = 2\nvalue = [0, 2]"] ;
1146 -> 1147 ;
1148 [label="gini = 0.0\nsamples = 1\nvalue = [1, 0]"] ;
1146 -> 1148 ;
1149 [label="gini = 0.0\nsamples = 4\nvalue = [0, 4]"] ;
1145 -> 1149 ;
1150 [label="html_ratio <= 0.209\ngini = 0.5\nsamples = 322\nvalue = [160, 162]"] ;
1144 -> 1150 ;
1151 [label="image_ratio <= 0.014\ngini = 0.26\nsamples = 13\nvalue = [11, 2]"] ;
1150 -> 1151 ;
1152 [label="gini = 0.0\nsamples = 1\nvalue = [0, 1]"] ;
1151 -> 1152 ;
1153 [label="image_ratio <= 0.028\ngini = 0.153\nsamples = 12\nvalue = [11, 1]"] ;
1151 -> 1153 ;
1154 [label="gini = 0.0\nsamples = 8\nvalue = [8, 0]"] ;
1153 -> 1154 ;
1155 [label="image_ratio <= 0.031\ngini = 0.375\nsamples = 4\nvalue = [3, 1]"] ;
1153 -> 1155 ;
1156 [label="gini = 0.0\nsamples = 1\nvalue = [0, 1]"] ;
1155 -> 1156 ;
1157 [label="gini = 0.0\nsamples = 3\nvalue = [3, 0]"] ;
1155 -> 1157 ;
1158 [label="html_ratio <= 0.212\ngini = 0.499\nsamples = 309\nvalue = [149, 160]"] ;
1150 -> 1158 ;
1159 [label="image_ratio <= 0.021\ngini = 0.375\nsamples = 16\nvalue = [4, 12]"] ;
1158 -> 1159 ;
1160 [label="image_ratio <= 0.015\ngini = 0.5\nsamples = 6\nvalue = [3, 3]"] ;
1159 -> 1160 ;
1161 [label="gini = 0.0\nsamples = 3\nvalue = [0, 3]"] ;
1160 -> 1161 ;
1162 [label="gini = 0.0\nsamples = 3\nvalue = [3, 0]"] ;
1160 -> 1162 ;
1163 [label="html_ratio <= 0.21\ngini = 0.18\nsamples = 10\nvalue = [1, 9]"] ;
1159 -> 1163 ;
1164 [label="html_ratio <= 0.209\ngini = 0.375\nsamples = 4\nvalue = [1, 3]"] ;
1163 -> 1164 ;
1165 [label="gini = 0.0\nsamples = 3\nvalue = [0, 3]"] ;
1164 -> 1165 ;
1166 [label="gini = 0.0\nsamples = 1\nvalue = [1, 0]"] ;
1164 -> 1166 ;
1167 [label="gini = 0.0\nsamples = 6\nvalue = [0, 6]"] ;
1163 -> 1167 ;
1168 [label="html_ratio <= 0.247\ngini = 0.5\nsamples = 293\nvalue = [145, 148]"] ;
1158 -> 1168 ;
1169 [label="html_ratio <= 0.225\ngini = 0.5\nsamples = 290\nvalue = [145, 145]"] ;
1168 -> 1169 ;
1170 [label="image_ratio <= 0.035\ngini = 0.491\nsamples = 81\nvalue = [35, 46]"] ;
1169 -> 1170 ;
1171 [label="image_ratio <= 0.033\ngini = 0.498\nsamples = 75\nvalue = [35, 40]"] ;
1170 -> 1171 ;
1172 [label="html_ratio <= 0.213\ngini = 0.487\nsamples = 69\nvalue = [29, 40]"] ;
1171 -> 1172 ;
1173 [label="html_ratio <= 0.213\ngini = 0.444\nsamples = 9\nvalue = [6, 3]"] ;
1172 -> 1173 ;
1174 [label="html_ratio <= 0.212\ngini = 0.48\nsamples = 5\nvalue = [2, 3]"] ;
1173 -> 1174 ;
1175 [label="image_ratio <= 0.021\ngini = 0.444\nsamples = 3\nvalue = [2, 1]"] ;
1174 -> 1175 ;
1176 [label="gini = 0.0\nsamples = 1\nvalue = [0, 1]"] ;
1175 -> 1176 ;
1177 [label="gini = 0.0\nsamples = 2\nvalue = [2, 0]"] ;
1175 -> 1177 ;
1178 [label="gini = 0.0\nsamples = 2\nvalue = [0, 2]"] ;
1174 -> 1178 ;
1179 [label="gini = 0.0\nsamples = 4\nvalue = [4, 0]"] ;
1173 -> 1179 ;
1180 [label="image_ratio <= 0.026\ngini = 0.473\nsamples = 60\nvalue = [23, 37]"] ;
1172 -> 1180 ;
1181 [label="image_ratio <= 0.013\ngini = 0.433\nsamples = 41\nvalue = [13, 28]"] ;
1180 -> 1181 ;
1182 [label="html_ratio <= 0.217\ngini = 0.469\nsamples = 8\nvalue = [5, 3]"] ;
1181 -> 1182 ;
1183 [label="gini = 0.0\nsamples = 1\nvalue = [0, 1]"] ;
1182 -> 1183 ;
1184 [label="html_ratio <= 0.221\ngini = 0.408\nsamples = 7\nvalue = [5, 2]"] ;
1182 -> 1184 ;
1185 [label="gini = 0.0\nsamples = 3\nvalue = [3, 0]"] ;
1184 -> 1185 ;
1186 [label="html_ratio <= 0.223\ngini = 0.5\nsamples = 4\nvalue = [2, 2]"] ;
1184 -> 1186 ;
1187 [label="gini = 0.0\nsamples = 2\nvalue = [0, 2]"] ;
1186 -> 1187 ;
1188 [label="gini = 0.0\nsamples = 2\nvalue = [2, 0]"] ;
1186 -> 1188 ;
1189 [label="image_ratio <= 0.025\ngini = 0.367\nsamples = 33\nvalue = [8, 25]"] ;
1181 -> 1189 ;
1190 [label="image_ratio <= 0.025\ngini = 0.408\nsamples = 28\nvalue = [8, 20]"] ;
1189 -> 1190 ;
1191 [label="image_ratio <= 0.019\ngini = 0.355\nsamples = 26\nvalue = [6, 20]"] ;
1190 -> 1191 ;
1192 [label="html_ratio <= 0.225\ngini = 0.245\nsamples = 14\nvalue = [2, 12]"] ;
1191 -> 1192 ;
1193 [label="image_ratio <= 0.013\ngini = 0.142\nsamples = 13\nvalue = [1, 12]"] ;
1192 -> 1193 ;
1194 [label="image_ratio <= 0.013\ngini = 0.375\nsamples = 4\nvalue = [1, 3]"] ;
1193 -> 1194 ;
1195 [label="gini = 0.0\nsamples = 3\nvalue = [0, 3]"] ;
1194 -> 1195 ;
1196 [label="gini = 0.0\nsamples = 1\nvalue = [1, 0]"] ;
1194 -> 1196 ;
1197 [label="gini = 0.0\nsamples = 9\nvalue = [0, 9]"] ;
1193 -> 1197 ;
1198 [label="gini = 0.0\nsamples = 1\nvalue = [1, 0]"] ;
1192 -> 1198 ;
1199 [label="image_ratio <= 0.02\ngini = 0.444\nsamples = 12\nvalue = [4, 8]"] ;
1191 -> 1199 ;
1200 [label="gini = 0.0\nsamples = 1\nvalue = [1, 0]"] ;
1199 -> 1200 ;
1201 [label="html_ratio <= 0.218\ngini = 0.397\nsamples = 11\nvalue = [3, 8]"] ;
1199 -> 1201 ;
1202 [label="gini = 0.0\nsamples = 2\nvalue = [0, 2]"] ;
1201 -> 1202 ;
1203 [label="html_ratio <= 0.22\ngini = 0.444\nsamples = 9\nvalue = [3, 6]"] ;
1201 -> 1203 ;
1204 [label="gini = 0.0\nsamples = 1\nvalue = [1, 0]"] ;
1203 -> 1204 ;
1205 [label="html_ratio <= 0.221\ngini = 0.375\nsamples = 8\nvalue = [2, 6]"] ;
1203 -> 1205 ;
1206 [label="gini = 0.0\nsamples = 3\nvalue = [0, 3]"] ;
1205 -> 1206 ;
1207 [label="image_ratio <= 0.021\ngini = 0.48\nsamples = 5\nvalue = [2, 3]"] ;
1205 -> 1207 ;
1208 [label="gini = 0.0\nsamples = 2\nvalue = [0, 2]"] ;
1207 -> 1208 ;
1209 [label="image_ratio <= 0.023\ngini = 0.444\nsamples = 3\nvalue = [2, 1]"] ;
1207 -> 1209 ;
1210 [label="gini = 0.0\nsamples = 2\nvalue = [2, 0]"] ;
1209 -> 1210 ;
1211 [label="gini = 0.0\nsamples = 1\nvalue = [0, 1]"] ;
1209 -> 1211 ;
1212 [label="gini = 0.0\nsamples = 2\nvalue = [2, 0]"] ;
1190 -> 1212 ;
1213 [label="gini = 0.0\nsamples = 5\nvalue = [0, 5]"] ;
1189 -> 1213 ;
1214 [label="image_ratio <= 0.028\ngini = 0.499\nsamples = 19\nvalue = [10, 9]"] ;
1180 -> 1214 ;
1215 [label="gini = 0.0\nsamples = 3\nvalue = [3, 0]"] ;
1214 -> 1215 ;
1216 [label="html_ratio <= 0.221\ngini = 0.492\nsamples = 16\nvalue = [7, 9]"] ;
1214 -> 1216 ;
1217 [label="image_ratio <= 0.031\ngini = 0.278\nsamples = 6\nvalue = [1, 5]"] ;
1216 -> 1217 ;
1218 [label="gini = 0.0\nsamples = 4\nvalue = [0, 4]"] ;
1217 -> 1218 ;
1219 [label="html_ratio <= 0.216\ngini = 0.5\nsamples = 2\nvalue = [1, 1]"] ;
1217 -> 1219 ;
1220 [label="gini = 0.0\nsamples = 1\nvalue = [1, 0]"] ;
1219 -> 1220 ;
1221 [label="gini = 0.0\nsamples = 1\nvalue = [0, 1]"] ;
1219 -> 1221 ;
1222 [label="html_ratio <= 0.223\ngini = 0.48\nsamples = 10\nvalue = [6, 4]"] ;
1216 -> 1222 ;
1223 [label="gini = 0.0\nsamples = 4\nvalue = [4, 0]"] ;
1222 -> 1223 ;
1224 [label="image_ratio <= 0.031\ngini = 0.444\nsamples = 6\nvalue = [2, 4]"] ;
1222 -> 1224 ;
